%YAML:1.0
---
opencv_ml_knn:
   format: 3
   is_classifier: 1
   default_k: 10
   samples: !!opencv-matrix
      rows: 741
      cols: 16
      dt: f
      data: [ 29., 57., 55., 25., 48., 9., 18., 50., 46., 1., 0., 36.,
          39., 61., 57., 50., 29., 57., 55., 25., 48., 9., 18., 50., 46.,
          1., 0., 36., 39., 61., 57., 50., 25., 64., 61., 24., 62., 55.,
          58., 63., 64., 47., 40., 62., 29., 64., 64., 40., 35., 64.,
          56., 35., 62., 56., 57., 64., 64., 52., 49., 64., 35., 64.,
          64., 49., 32., 61., 54., 26., 53., 9., 15., 53., 50., 2., 0.,
          39., 34., 63., 58., 47., 32., 61., 54., 26., 53., 9., 15., 53.,
          50., 2., 0., 39., 34., 63., 58., 47., 34., 63., 60., 30., 41.,
          16., 20., 45., 41., 10., 5., 26., 34., 64., 61., 49., 34., 63.,
          60., 30., 41., 16., 20., 45., 41., 10., 5., 26., 34., 64., 61.,
          49., 32., 63., 61., 26., 58., 28., 37., 61., 59., 34., 29.,
          59., 26., 60., 63., 37., 32., 63., 61., 26., 58., 28., 37.,
          61., 59., 34., 29., 59., 26., 60., 63., 37., 28., 60., 61.,
          29., 54., 48., 53., 61., 55., 32., 27., 39., 28., 64., 64.,
          48., 28., 60., 61., 29., 54., 48., 53., 61., 55., 32., 27.,
          39., 28., 64., 64., 48., 18., 52., 62., 53., 50., 20., 12.,
          39., 42., 0., 11., 50., 54., 56., 56., 27., 9., 42., 60., 53.,
          46., 25., 9., 36., 43., 0., 10., 51., 54., 60., 57., 19., 26.,
          56., 58., 30., 47., 2., 3., 46., 46., 1., 0., 38., 33., 57.,
          57., 38., 32., 62., 60., 26., 42., 6., 16., 47., 40., 6., 0.,
          27., 31., 61., 60., 45., 27., 63., 61., 31., 51., 6., 6., 50.,
          47., 0., 0., 42., 38., 58., 54., 50., 41., 6., 0., 18., 61.,
          32., 31., 42., 29., 34., 48., 57., 0., 0., 0., 32., 13., 24.,
          0., 0., 22., 24., 0., 0., 59., 59., 52., 40., 38., 56., 60.,
          64., 34., 12., 3., 9., 58., 64., 54., 52., 58., 64., 64., 64.,
          4., 11., 22., 41., 16., 31., 0., 0., 29., 36., 5., 0., 60.,
          64., 61., 55., 53., 59., 64., 64., 24., 0., 0., 7., 52., 53.,
          48., 47., 62., 64., 64., 64., 6., 12., 17., 35., 13., 6., 0.,
          24., 43., 11., 14., 43., 61., 64., 64., 63., 37., 24., 10.,
          32., 7., 24., 0., 0., 20., 30., 28., 53., 38., 64., 64., 64.,
          64., 57., 30., 14., 11., 27., 0., 0., 33., 19., 0., 0., 58.,
          39., 24., 24., 50., 57., 64., 64., 16., 0., 0., 1., 49., 50.,
          42., 38., 38., 48., 54., 59., 0., 0., 0., 14., 34., 8., 0.,
          22., 62., 54., 52., 52., 47., 64., 56., 64., 0., 0., 0., 40.,
          36., 36., 3., 44., 56., 64., 64., 64., 64., 64., 64., 64., 2.,
          8., 25., 64., 64., 62., 56., 40., 64., 64., 64., 64., 64., 64.,
          64., 64., 58., 64., 64., 64., 21., 0., 0., 4., 42., 48., 48.,
          52., 60., 64., 64., 64., 64., 64., 64., 64., 35., 8., 0., 23.,
          56., 30., 30., 43., 56., 49., 48., 57., 0., 0., 0., 24., 7.,
          56., 0., 0., 26., 43., 0., 0., 58., 64., 62., 64., 64., 64.,
          64., 64., 10., 36., 0., 0., 24., 24., 0., 0., 48., 52., 48.,
          48., 64., 64., 64., 64., 29., 19., 0., 28., 58., 0., 24., 63.,
          63., 59., 48., 58., 31., 42., 14., 60., 8., 0., 1., 45., 47.,
          0., 26., 62., 43., 23., 56., 35., 60., 57., 13., 28., 6., 12.,
          11., 57., 50., 22., 42., 50., 41., 13., 35., 42., 56., 54., 6.,
          32., 30., 0., 0., 24., 30., 0., 11., 61., 46., 23., 57., 33.,
          28., 47., 18., 24., 44., 26., 0., 33., 32., 11., 30., 53., 36.,
          21., 39., 33., 47., 56., 6., 48., 42., 8., 22., 48., 50., 5.,
          56., 48., 49., 46., 25., 40., 34., 38., 1., 39., 39., 32., 26.,
          60., 60., 31., 61., 62., 63., 61., 48., 59., 41., 60., 31.,
          64., 33., 63., 22., 15., 64., 61., 60., 64., 64., 64., 64.,
          64., 35., 55., 46., 64., 31., 9., 0., 35., 57., 0., 22., 63.,
          64., 45., 48., 50., 34., 50., 7., 57., 38., 0., 0., 46., 40.,
          0., 23., 59., 47., 17., 52., 28., 43., 59., 17., 24., 38., 6.,
          0., 33., 42., 0., 12., 54., 56., 20., 45., 33., 39., 50., 9.,
          35., 32., 19., 6., 52., 60., 11., 46., 64., 57., 32., 56., 53.,
          45., 60., 15., 48., 30., 16., 1., 49., 50., 6., 36., 58., 46.,
          15., 49., 37., 41., 57., 10., 35., 8., 1., 2., 36., 47., 18.,
          16., 32., 36., 39., 29., 49., 60., 54., 61., 48., 42., 0., 0.,
          31., 40., 0., 25., 59., 53., 35., 54., 29., 24., 39., 5., 30.,
          43., 38., 14., 56., 47., 2., 45., 42., 48., 24., 35., 39., 35.,
          52., 7., 40., 36., 16., 0., 23., 45., 0., 13., 56., 56., 33.,
          44., 35., 27., 41., 6., 42., 40., 40., 9., 45., 58., 14., 46.,
          63., 59., 42., 46., 54., 28., 50., 8., 56., 19., 0., 0., 54.,
          34., 19., 2., 35., 62., 61., 34., 32., 36., 39., 64., 43., 35.,
          4., 4., 36., 39., 16., 16., 28., 48., 39., 26., 29., 46., 50.,
          56., 56., 24., 0., 0., 29., 35., 12., 2., 26., 42., 41., 24.,
          26., 49., 44., 62., 42., 41., 13., 16., 45., 61., 23., 10.,
          58., 58., 52., 31., 55., 38., 47., 61., 49., 30., 10., 6., 43.,
          50., 17., 6., 46., 48., 40., 17., 34., 31., 41., 59., 49., 42.,
          6., 5., 33., 37., 19., 16., 26., 50., 46., 24., 32., 41., 41.,
          56., 55., 49., 25., 16., 48., 43., 16., 11., 35., 52., 40.,
          20., 34., 32., 41., 58., 56., 38., 0., 0., 26., 34., 12., 7.,
          27., 52., 48., 24., 26., 36., 28., 63., 45., 44., 30., 15.,
          37., 59., 23., 23., 59., 60., 57., 42., 59., 27., 32., 61.,
          47., 36., 5., 0., 43., 49., 28., 9., 40., 63., 64., 44., 40.,
          27., 28., 63., 35., 10., 18., 11., 58., 49., 24., 7., 31., 44.,
          29., 26., 45., 53., 51., 59., 32., 33., 13., 0., 15., 30., 26.,
          0., 30., 40., 50., 2., 35., 38., 45., 53., 26., 52., 11., 0.,
          49., 28., 13., 1., 37., 40., 41., 14., 16., 39., 34., 54., 57.,
          42., 2., 1., 40., 54., 28., 14., 38., 51., 51., 31., 44., 27.,
          41., 55., 49., 45., 24., 24., 49., 61., 25., 23., 61., 64.,
          61., 52., 62., 40., 45., 61., 52., 60., 47., 11., 47., 64.,
          64., 43., 64., 64., 64., 64., 64., 48., 25., 62., 43., 0., 6.,
          53., 15., 6., 43., 31., 16., 48., 62., 63., 59., 43., 40., 52.,
          48., 0., 11., 50., 13., 22., 56., 38., 16., 64., 45., 49., 46.,
          24., 24., 39., 32., 0., 9., 52., 3., 15., 43., 29., 8., 59.,
          56., 59., 53., 24., 24., 39., 29., 0., 9., 55., 22., 13., 60.,
          55., 24., 61., 61., 60., 59., 32., 32., 48., 42., 0., 6., 59.,
          5., 7., 54., 49., 8., 54., 52., 51., 39., 24., 24., 45., 29.,
          0., 14., 51., 15., 37., 55., 36., 16., 64., 48., 49., 41., 18.,
          24., 39., 36., 0., 11., 53., 15., 21., 56., 38., 16., 63., 60.,
          55., 47., 6., 13., 39., 30., 0., 9., 50., 15., 12., 49., 31.,
          16., 62., 61., 59., 52., 7., 13., 35., 29., 0., 19., 58., 23.,
          40., 58., 44., 22., 64., 64., 64., 58., 20., 28., 48., 46., 0.,
          10., 51., 20., 12., 52., 36., 24., 61., 64., 64., 60., 27.,
          32., 53., 48., 0., 6., 49., 16., 8., 50., 49., 16., 55., 52.,
          45., 52., 54., 45., 49., 34., 0., 19., 40., 0., 19., 50., 30.,
          0., 62., 38., 41., 18., 24., 29., 44., 32., 0., 2., 47., 16.,
          1., 41., 47., 16., 35., 61., 50., 61., 46., 38., 45., 17., 0.,
          12., 46., 0., 19., 48., 23., 5., 62., 57., 52., 47., 8., 13.,
          25., 41., 0., 8., 48., 0., 14., 58., 57., 0., 61., 52., 54.,
          32., 18., 24., 47., 35., 1., 36., 53., 0., 39., 48., 55., 24.,
          64., 64., 64., 64., 33., 39., 60., 62., 0., 22., 53., 7., 46.,
          64., 64., 3., 64., 64., 64., 41., 56., 58., 64., 64., 23., 55.,
          0., 46., 54., 60., 9., 37., 55., 47., 29., 25., 49., 22., 64.,
          41., 48., 48., 0., 32., 45., 44., 0., 32., 32., 32., 15., 42.,
          24., 18., 64., 48., 5., 26., 0., 36., 55., 44., 0., 30., 41.,
          58., 3., 29., 40., 38., 54., 38., 24., 42., 30., 35., 63., 62.,
          18., 58., 56., 48., 24., 57., 47., 27., 64., 41., 31., 53.,
          27., 49., 55., 54., 4., 40., 40., 45., 2., 40., 34., 29., 59.,
          48., 63., 57., 6., 33., 43., 34., 8., 32., 40., 30., 22., 43.,
          21., 12., 63., 52., 52., 59., 25., 52., 47., 46., 2., 31., 40.,
          44., 7., 35., 21., 19., 62., 49., 23., 38., 0., 29., 45., 48.,
          0., 22., 42., 47., 17., 28., 32., 21., 62., 40., 45., 53., 33.,
          44., 59., 51., 16., 57., 50., 44., 40., 60., 29., 19., 62.,
          41., 28., 46., 16., 50., 57., 47., 18., 46., 56., 40., 35.,
          35., 47., 16., 62., 40., 5., 15., 2., 39., 61., 60., 11., 32.,
          41., 32., 19., 53., 36., 19., 64., 39., 5., 26., 17., 58., 57.,
          58., 7., 27., 40., 46., 5., 45., 35., 24., 55., 23., 59., 51.,
          0., 18., 28., 28., 0., 28., 24., 29., 4., 39., 9., 24., 59.,
          24., 52., 45., 19., 52., 34., 32., 3., 30., 32., 34., 4., 27.,
          21., 22., 59., 58., 53., 59., 22., 37., 48., 53., 6., 35., 40.,
          40., 2., 46., 21., 43., 60., 44., 60., 64., 28., 48., 59., 46.,
          28., 60., 60., 40., 55., 63., 49., 21., 64., 46., 46., 56.,
          21., 54., 64., 64., 37., 64., 64., 62., 64., 64., 51., 34.,
          64., 44., 4., 48., 64., 41., 37., 62., 32., 55., 45., 27., 27.,
          31., 20., 16., 64., 54., 21., 57., 57., 41., 49., 33., 13.,
          40., 34., 31., 14., 37., 29., 13., 63., 52., 6., 49., 64., 35.,
          37., 51., 16., 37., 36., 32., 15., 27., 16., 15., 63., 49.,
          29., 61., 62., 33., 59., 49., 39., 58., 59., 40., 38., 56.,
          34., 21., 63., 48., 27., 60., 62., 36., 51., 37., 13., 40.,
          47., 39., 9., 36., 40., 31., 62., 50., 27., 57., 59., 39., 50.,
          31., 21., 44., 38., 31., 14., 30., 25., 12., 63., 54., 28.,
          59., 60., 31., 51., 40., 29., 48., 49., 38., 11., 39., 34.,
          17., 63., 53., 6., 47., 56., 27., 39., 52., 26., 49., 39., 37.,
          14., 25., 9., 20., 64., 52., 19., 56., 56., 24., 57., 49., 50.,
          59., 58., 38., 23., 54., 35., 25., 63., 54., 6., 51., 63., 37.,
          36., 62., 48., 59., 45., 32., 49., 49., 18., 13., 61., 43.,
          10., 46., 62., 52., 51., 43., 28., 42., 41., 32., 19., 48.,
          40., 18., 62., 34., 6., 40., 60., 48., 45., 48., 25., 41., 45.,
          32., 16., 49., 53., 23., 57., 22., 30., 61., 62., 36., 42.,
          35., 24., 45., 39., 29., 2., 16., 29., 22., 64., 53., 19., 53.,
          60., 38., 47., 39., 14., 40., 28., 32., 3., 25., 4., 22., 52.,
          49., 4., 49., 64., 42., 45., 53., 19., 46., 31., 32., 10., 41.,
          0., 15., 64., 48., 24., 61., 61., 29., 61., 59., 58., 63., 62.,
          44., 49., 61., 43., 26., 64., 50., 17., 45., 64., 38., 61.,
          64., 57., 64., 22., 58., 56., 64., 0., 28., 63., 39., 54., 12.,
          0., 0., 62., 0., 2., 29., 64., 25., 56., 33., 61., 34., 2., 0.,
          30., 0., 0., 3., 40., 0., 21., 55., 40., 40., 59., 21., 63.,
          38., 2., 0., 54., 3., 0., 0., 43., 0., 6., 37., 50., 27., 51.,
          26., 60., 33., 1., 0., 55., 0., 0., 2., 63., 12., 48., 64.,
          62., 58., 48., 25., 59., 30., 0., 0., 44., 0., 0., 4., 47., 9.,
          46., 62., 55., 56., 31., 8., 59., 13., 0., 0., 39., 0., 0., 0.,
          37., 0., 11., 39., 35., 36., 60., 38., 62., 40., 9., 0., 47.,
          0., 0., 0., 48., 1., 26., 57., 51., 48., 42., 18., 59., 19.,
          0., 0., 51., 3., 0., 0., 40., 0., 0., 15., 37., 24., 52., 58.,
          60., 41., 17., 1., 56., 0., 0., 0., 56., 8., 39., 56., 58.,
          58., 49., 36., 62., 25., 0., 0., 59., 22., 0., 0., 64., 0., 7.,
          33., 64., 37., 60., 55., 62., 42., 12., 0., 40., 0., 3., 41.,
          40., 9., 54., 45., 54., 59., 30., 0., 57., 13., 0., 0., 46.,
          0., 10., 49., 48., 17., 53., 26., 51., 50., 7., 0., 54., 6.,
          0., 0., 39., 0., 0., 6., 38., 0., 16., 50., 32., 26., 57., 12.,
          58., 46., 9., 0., 57., 11., 0., 0., 41., 0., 26., 48., 41.,
          45., 49., 52., 55., 11., 0., 0., 43., 0., 0., 3., 44., 3., 32.,
          61., 55., 60., 31., 7., 58., 10., 0., 0., 64., 32., 0., 20.,
          59., 13., 29., 62., 61., 57., 64., 64., 64., 52., 21., 59.,
          64., 24., 1., 14., 64., 45., 51., 64., 64., 64., 64., 61., 63.,
          43., 22., 6., 42., 43., 45., 47., 53., 62., 43., 38., 33., 45.,
          54., 36., 52., 50., 61., 52., 37., 34., 41., 55., 47., 46.,
          40., 30., 46., 38., 37., 29., 43., 39., 50., 60., 46., 36.,
          41., 54., 44., 58., 42., 35., 36., 47., 49., 24., 46., 32.,
          50., 58., 42., 43., 56., 45., 57., 52., 44., 55., 56., 48.,
          34., 50., 44., 49., 61., 54., 31., 36., 55., 41., 50., 46.,
          33., 44., 48., 42., 24., 35., 32., 46., 59., 53., 47., 48.,
          43., 54., 45., 41., 41., 39., 48., 49., 32., 35., 37., 30.,
          55., 58., 43., 49., 58., 44., 46., 36., 28., 42., 51., 47.,
          21., 40., 29., 35., 60., 49., 46., 49., 35., 49., 34., 48.,
          46., 39., 44., 46., 44., 15., 37., 31., 52., 55., 35., 44.,
          56., 42., 59., 47., 43., 59., 57., 47., 35., 57., 32., 40.,
          59., 47., 36., 48., 37., 40., 52., 61., 53., 52., 57., 58.,
          56., 44., 36., 30., 57., 48., 11., 17., 32., 53., 55., 57.,
          48., 38., 40., 38., 31., 42., 59., 45., 53., 38., 7., 21., 46.,
          57., 44., 54., 37., 33., 45., 30., 26., 43., 53., 52., 60.,
          36., 42., 46., 43., 45., 30., 39., 29., 26., 34., 35., 32.,
          16., 38., 40., 53., 53., 44., 41., 54., 58., 37., 41., 25.,
          24., 44., 52., 29., 26., 28., 22., 54., 51., 38., 52., 50.,
          48., 48., 39., 38., 43., 52., 49., 28., 39., 28., 36., 58.,
          50., 43., 57., 58., 53., 63., 53., 55., 61., 64., 58., 48.,
          59., 43., 55., 63., 52., 30., 47., 62., 35., 60., 62., 60.,
          64., 64., 62., 51., 64., 33., 50., 64., 50., 45., 63., 18.,
          22., 44., 5., 40., 26., 45., 2., 40., 38., 40., 61., 59., 46.,
          39., 62., 18., 27., 44., 3., 40., 44., 47., 8., 41., 41., 29.,
          62., 62., 44., 37., 62., 20., 4., 28., 9., 37., 26., 40., 12.,
          41., 42., 27., 62., 58., 11., 42., 63., 29., 35., 57., 23.,
          48., 52., 57., 32., 52., 56., 28., 60., 63., 45., 40., 63.,
          23., 13., 50., 46., 39., 38., 59., 48., 60., 43., 31., 61.,
          58., 5., 17., 47., 14., 35., 52., 27., 32., 35., 42., 9., 41.,
          48., 57., 63., 58., 16., 16., 49., 21., 49., 50., 18., 35.,
          34., 40., 16., 47., 52., 50., 61., 51., 15., 42., 56., 14., 3.,
          31., 5., 27., 26., 36., 3., 24., 38., 36., 59., 58., 21., 43.,
          60., 22., 23., 28., 2., 28., 36., 39., 7., 31., 35., 39., 63.,
          63., 42., 38., 63., 17., 13., 43., 11., 38., 41., 48., 9., 53.,
          44., 40., 64., 54., 11., 40., 64., 26., 36., 63., 49., 43.,
          61., 63., 53., 56., 63., 31., 64., 64., 40., 34., 63., 31., 0.,
          64., 59., 62., 24., 64., 56., 64., 64., 41., 64., 52., 27.,
          33., 62., 20., 7., 48., 37., 39., 29., 48., 32., 50., 48., 35.,
          64., 58., 14., 38., 56., 14., 14., 35., 24., 30., 32., 40.,
          13., 47., 42., 38., 64., 54., 8., 34., 57., 17., 25., 46., 8.,
          38., 32., 48., 5., 38., 44., 33., 62., 61., 30., 38., 61., 20.,
          44., 61., 33., 40., 53., 60., 34., 47., 54., 32., 64., 62.,
          44., 38., 63., 23., 42., 50., 7., 44., 41., 44., 4., 41., 42.,
          35., 61., 63., 46., 0., 6., 29., 52., 37., 49., 50., 3., 47.,
          47., 46., 0., 0., 14., 46., 53., 0., 6., 31., 50., 36., 41.,
          50., 2., 36., 41., 48., 0., 0., 8., 38., 50., 0., 0., 11., 40.,
          20., 37., 39., 3., 35., 54., 43., 8., 0., 6., 30., 57., 0.,
          12., 36., 58., 51., 58., 57., 20., 47., 57., 55., 17., 0., 12.,
          40., 60., 0., 0., 12., 40., 17., 41., 45., 3., 32., 60., 62.,
          27., 0., 3., 31., 59., 0., 13., 40., 62., 47., 57., 52., 7.,
          50., 52., 49., 2., 0., 16., 48., 58., 0., 3., 22., 45., 35.,
          56., 46., 0., 26., 54., 64., 43., 0., 1., 21., 49., 0., 10.,
          39., 60., 47., 50., 46., 5., 41., 52., 48., 4., 0., 6., 36.,
          59., 0., 3., 22., 44., 32., 45., 42., 1., 26., 51., 52., 17.,
          0., 2., 22., 52., 0., 6., 32., 47., 39., 42., 44., 0., 37.,
          37., 41., 0., 0., 6., 36., 40., 40., 63., 64., 64., 61., 60.,
          63., 60., 64., 56., 63., 53., 45., 64., 64., 64., 0., 0., 8.,
          47., 0., 24., 49., 11., 46., 53., 37., 12., 15., 28., 46., 60.,
          0., 11., 35., 57., 51., 62., 57., 35., 53., 59., 50., 28., 0.,
          16., 42., 62., 0., 9., 33., 59., 49., 52., 47., 4., 47., 50.,
          47., 1., 0., 12., 36., 59., 0., 1., 39., 63., 10., 54., 64.,
          20., 61., 60., 60., 6., 11., 31., 49., 62., 0., 0., 14., 52.,
          2., 34., 59., 12., 54., 39., 33., 0., 35., 50., 62., 55., 0.,
          0., 16., 53., 3., 34., 58., 11., 52., 34., 37., 0., 41., 51.,
          61., 44., 64., 64., 64., 64., 34., 18., 17., 26., 50., 40.,
          25., 36., 31., 39., 56., 51., 54., 48., 48., 45., 25., 20.,
          20., 26., 39., 29., 21., 22., 36., 46., 57., 55., 61., 59.,
          60., 62., 38., 24., 16., 32., 44., 32., 19., 38., 40., 50.,
          54., 50., 52., 44., 42., 44., 45., 47., 44., 47., 47., 47.,
          38., 45., 40., 41., 57., 52., 64., 64., 64., 64., 50., 35.,
          33., 43., 55., 43., 32., 48., 41., 47., 60., 53., 64., 64.,
          64., 64., 46., 28., 28., 39., 50., 41., 30., 41., 41., 45.,
          58., 57., 61., 56., 56., 56., 37., 22., 23., 36., 49., 36.,
          28., 35., 28., 40., 52., 55., 16., 57., 64., 64., 56., 64.,
          64., 64., 63., 64., 58., 64., 43., 57., 63., 57., 47., 32.,
          33., 41., 59., 57., 57., 59., 49., 46., 34., 39., 42., 45.,
          58., 55., 55., 48., 42., 49., 43., 40., 38., 40., 39., 30.,
          25., 28., 35., 52., 57., 58., 60., 61., 62., 60., 32., 18.,
          15., 21., 38., 34., 18., 30., 32., 42., 56., 55., 64., 64.,
          64., 64., 58., 34., 37., 48., 59., 42., 36., 50., 42., 52.,
          59., 58., 2., 11., 27., 51., 61., 63., 40., 32., 37., 20., 35.,
          45., 52., 55., 45., 38., 64., 64., 64., 64., 40., 16., 18.,
          25., 47., 29., 22., 30., 32., 51., 54., 55., 13., 27., 42.,
          59., 57., 48., 29., 36., 32., 24., 17., 35., 52., 51., 56.,
          48., 14., 33., 50., 64., 54., 45., 22., 32., 32., 24., 16.,
          33., 44., 47., 50., 47., 59., 64., 64., 62., 57., 35., 44.,
          54., 55., 48., 48., 57., 22., 51., 54., 44., 17., 54., 56.,
          29., 43., 3., 1., 43., 33., 0., 0., 28., 37., 0., 0., 38., 21.,
          60., 63., 25., 38., 2., 1., 42., 24., 0., 0., 16., 48., 6., 0.,
          26., 28., 54., 55., 29., 44., 0., 1., 42., 40., 0., 0., 32.,
          41., 12., 19., 45., 19., 57., 60., 22., 51., 25., 23., 51.,
          20., 0., 0., 20., 38., 2., 0., 28., 25., 62., 62., 23., 54.,
          15., 14., 55., 54., 0., 2., 53., 45., 18., 31., 44., 23., 58.,
          59., 26., 48., 4., 4., 45., 33., 0., 0., 32., 42., 0., 0., 43.,
          30., 63., 64., 30., 63., 44., 38., 64., 63., 38., 40., 64.,
          30., 56., 64., 37., 21., 58., 61., 29., 51., 13., 11., 49.,
          34., 0., 0., 32., 45., 0., 0., 46., 23., 63., 64., 26., 49.,
          28., 27., 49., 26., 0., 0., 24., 51., 12., 0., 38., 23., 63.,
          62., 28., 43., 8., 6., 43., 25., 0., 0., 19., 53., 9., 0., 33.,
          23., 56., 56., 29., 44., 2., 0., 39., 25., 0., 0., 25., 33.,
          0., 0., 35., 12., 56., 64., 40., 42., 17., 0., 34., 26., 0.,
          0., 29., 47., 6., 0., 20., 29., 64., 63., 30., 59., 19., 17.,
          56., 54., 4., 4., 54., 37., 30., 24., 47., 28., 54., 53., 28.,
          44., 1., 0., 43., 39., 0., 0., 37., 34., 18., 23., 46., 3.,
          42., 64., 41., 40., 51., 20., 55., 61., 3., 1., 56., 64., 15.,
          10., 48., 8., 46., 57., 42., 41., 14., 0., 38., 40., 0., 0.,
          43., 48., 12., 29., 30., 10., 45., 56., 40., 40., 14., 0., 37.,
          36., 0., 1., 42., 44., 12., 28., 25., 64., 64., 64., 64., 32.,
          0., 0., 26., 48., 3., 2., 48., 30., 59., 61., 37., 50., 41.,
          40., 42., 24., 16., 16., 28., 34., 0., 0., 32., 33., 56., 58.,
          35., 64., 62., 64., 62., 32., 0., 0., 32., 46., 0., 0., 41.,
          33., 54., 53., 43., 63., 64., 64., 61., 51., 16., 16., 48.,
          55., 8., 7., 55., 34., 64., 64., 39., 53., 44., 40., 45., 44.,
          32., 32., 46., 48., 19., 16., 43., 32., 64., 64., 35., 64.,
          64., 64., 64., 64., 47., 45., 64., 62., 48., 48., 64., 33.,
          64., 64., 37., 57., 48., 50., 55., 44., 32., 34., 46., 47.,
          22., 22., 45., 31., 64., 64., 32., 51., 48., 48., 52., 33., 0.,
          0., 32., 42., 1., 0., 42., 22., 52., 52., 33., 63., 56., 63.,
          60., 25., 0., 0., 25., 39., 0., 0., 41., 33., 51., 53., 32.,
          64., 60., 64., 58., 38., 0., 0., 32., 46., 1., 0., 47., 27.,
          57., 56., 35., 54., 40., 40., 47., 35., 16., 16., 29., 38., 2.,
          0., 35., 25., 53., 50., 37., 7., 13., 29., 53., 57., 42., 24.,
          29., 29., 0., 5., 44., 38., 56., 59., 20., 64., 64., 64., 64.,
          52., 16., 16., 52., 57., 15., 17., 57., 35., 64., 64., 37.,
          60., 53., 56., 60., 36., 0., 0., 32., 43., 2., 0., 40., 26.,
          56., 55., 39., 20., 34., 53., 62., 49., 25., 8., 32., 34., 0.,
          1., 46., 52., 41., 53., 27., 16., 32., 48., 64., 50., 27., 7.,
          32., 32., 0., 0., 43., 52., 32., 49., 32., 61., 64., 64., 56.,
          49., 25., 15., 48., 26., 39., 4., 57., 2., 52., 64., 38., 64.,
          64., 64., 64., 32., 24., 25., 30., 32., 24., 19., 24., 27.,
          17., 11., 24., 53., 48., 48., 50., 28., 31., 29., 34., 16.,
          19., 12., 16., 37., 14., 15., 40., 60., 59., 58., 61., 40.,
          24., 16., 32., 37., 24., 16., 32., 35., 18., 14., 32., 52.,
          46., 43., 48., 47., 52., 51., 54., 21., 40., 37., 20., 42., 3.,
          7., 53., 64., 64., 64., 64., 57., 39., 34., 46., 56., 32., 24.,
          41., 47., 27., 17., 46., 42., 58., 58., 37., 64., 64., 64.,
          64., 64., 57., 54., 64., 64., 46., 46., 64., 64., 64., 59.,
          56., 41., 33., 32., 43., 32., 23., 16., 32., 32., 11., 12.,
          32., 64., 64., 64., 62., 40., 37., 29., 44., 32., 24., 16.,
          32., 32., 15., 12., 32., 55., 48., 48., 53., 54., 52., 52.,
          53., 25., 42., 40., 21., 50., 8., 7., 55., 54., 48., 43., 46.,
          40., 35., 32., 39., 24., 21., 11., 20., 47., 23., 22., 44.,
          63., 64., 64., 64., 32., 18., 22., 20., 32., 16., 16., 16.,
          32., 9., 13., 16., 4., 11., 29., 50., 61., 56., 39., 30., 28.,
          29., 24., 27., 44., 10., 0., 37., 64., 64., 64., 64., 57., 40.,
          44., 56., 48., 29., 24., 48., 48., 26., 20., 48., 64., 64.,
          64., 64., 35., 17., 16., 32., 32., 16., 16., 32., 28., 16.,
          15., 31., 16., 30., 46., 59., 53., 40., 26., 33., 32., 24.,
          16., 32., 32., 19., 13., 21., 15., 28., 46., 61., 54., 38.,
          23., 34., 32., 16., 16., 32., 32., 16., 13., 20., 58., 64.,
          64., 56., 51., 39., 44., 49., 48., 24., 26., 40., 49., 22.,
          22., 40., 64., 64., 64., 62., 43., 23., 34., 12., 32., 16.,
          24., 0., 32., 11., 16., 0., 57., 52., 49., 51., 54., 52., 54.,
          51., 27., 45., 38., 1., 50., 6., 6., 0., 64., 64., 64., 64.,
          56., 40., 42., 31., 48., 32., 24., 0., 48., 25., 21., 0., 64.,
          64., 64., 60., 43., 22., 39., 24., 40., 16., 23., 0., 39., 15.,
          17., 0., 64., 64., 64., 59., 52., 40., 45., 32., 40., 16., 22.,
          0., 39., 15., 20., 0., 63., 64., 58., 56., 38., 21., 31., 22.,
          32., 8., 17., 0., 28., 8., 16., 0., 31., 56., 64., 58., 63.,
          64., 64., 64., 64., 35., 48., 14., 53., 10., 0., 0., 48., 40.,
          39., 46., 64., 64., 64., 64., 24., 41., 40., 6., 53., 13., 6.,
          0., 45., 32., 32., 36., 45., 44., 45., 44., 24., 18., 12., 0.,
          45., 27., 23., 0., 2., 6., 26., 44., 60., 62., 40., 27., 27.,
          31., 26., 0., 42., 7., 0., 0., 64., 64., 64., 64., 60., 44.,
          49., 32., 56., 24., 32., 0., 56., 22., 27., 0., 62., 63., 56.,
          57., 43., 18., 22., 8., 40., 16., 16., 0., 40., 14., 14., 0.,
          11., 30., 50., 63., 59., 48., 29., 2., 32., 24., 16., 0., 32.,
          24., 14., 0., 11., 31., 48., 62., 57., 42., 25., 0., 40., 16.,
          16., 0., 39., 14., 13., 0., 64., 64., 64., 64., 55., 46., 29.,
          23., 48., 44., 8., 0., 47., 27., 6., 0., 64., 64., 64., 64.,
          44., 21., 33., 13., 39., 16., 22., 0., 35., 11., 16., 0., 47.,
          40., 34., 38., 42., 37., 36., 35., 17., 20., 12., 0., 41., 14.,
          12., 0., 30., 60., 61., 29., 51., 2., 3., 46., 32., 14., 23.,
          32., 45., 16., 55., 57., 25., 64., 64., 25., 60., 58., 53.,
          61., 64., 38., 58., 64., 23., 25., 64., 52., 28., 61., 61.,
          28., 52., 5., 6., 49., 38., 10., 24., 34., 46., 8., 59., 60.,
          27., 61., 61., 25., 44., 17., 19., 45., 31., 0., 30., 35., 46.,
          15., 51., 44., 25., 63., 63., 27., 43., 3., 3., 37., 28., 0.,
          4., 22., 47., 17., 64., 57., 19., 48., 48., 29., 38., 0., 0.,
          35., 32., 8., 17., 21., 34., 8., 46., 50., 12., 54., 64., 37.,
          41., 13., 0., 32., 26., 0., 19., 40., 52., 7., 52., 28., 26.,
          62., 62., 28., 58., 18., 17., 56., 52., 13., 31., 53., 43.,
          42., 63., 59., 30., 55., 55., 29., 44., 0., 0., 41., 38., 7.,
          29., 35., 34., 20., 55., 58., 13., 52., 50., 42., 49., 6., 0.,
          38., 33., 10., 24., 44., 50., 19., 58., 47., 11., 48., 51.,
          42., 44., 10., 0., 36., 33., 6., 21., 38., 49., 15., 55., 51.,
          10., 49., 64., 50., 55., 35., 46., 44., 55., 16., 51., 59.,
          27., 20., 62., 24., 21., 53., 55., 31., 47., 2., 3., 43., 37.,
          8., 25., 26., 45., 7., 56., 56., 20., 56., 59., 27., 35., 1.,
          3., 39., 24., 3., 3., 17., 39., 15., 57., 49., 24., 52., 54.,
          30., 46., 0., 0., 41., 40., 2., 31., 30., 38., 16., 56., 51.,
          25., 62., 62., 28., 56., 11., 11., 52., 55., 8., 35., 46., 40.,
          27., 64., 55., 16., 59., 61., 25., 41., 19., 20., 43., 27., 0.,
          16., 24., 37., 5., 42., 44., 58., 56., 56., 56., 0., 16., 17.,
          0., 0., 16., 16., 0., 64., 63., 59., 56., 64., 64., 63., 62.,
          7., 26., 23., 8., 0., 20., 16., 0., 64., 64., 64., 64., 64.,
          64., 64., 64., 56., 61., 64., 64., 56., 61., 59., 51., 64.,
          64., 64., 64., 48., 37., 32., 38., 32., 34., 34., 30., 15.,
          23., 22., 13., 59., 56., 56., 59., 57., 58., 56., 55., 0., 16.,
          16., 0., 0., 16., 16., 0., 48., 52., 52., 48., 49., 40., 40.,
          48., 46., 46., 43., 47., 40., 40., 32., 36., 54., 48., 48.,
          53., 9., 15., 30., 49., 57., 41., 29., 14., 12., 19., 37., 45.,
          58., 41., 28., 17., 64., 64., 64., 64., 22., 49., 34., 24.,
          16., 46., 28., 16., 64., 64., 64., 64., 52., 58., 58., 56., 0.,
          16., 16., 0., 0., 16., 16., 0., 48., 53., 52., 48., 22., 37.,
          47., 58., 33., 34., 20., 0., 0., 16., 19., 20., 41., 57., 50.,
          38., 18., 35., 48., 54., 32., 33., 23., 0., 0., 16., 20., 13.,
          37., 53., 53., 38., 60., 64., 64., 64., 6., 19., 46., 8., 2.,
          21., 38., 0., 58., 64., 64., 64., 64., 64., 64., 64., 0., 19.,
          21., 8., 0., 16., 16., 0., 56., 59., 58., 56., 54., 48., 41.,
          47., 17., 16., 24., 19., 15., 22., 20., 10., 58., 56., 56.,
          58., 60., 61., 64., 63., 0., 25., 16., 0., 0., 30., 16., 0.,
          56., 60., 58., 55., 59., 51., 49., 51., 28., 31., 34., 27.,
          29., 34., 34., 27., 52., 48., 48., 52., 64., 64., 64., 64.,
          16., 34., 40., 16., 14., 37., 36., 8., 64., 64., 64., 64., 26.,
          8., 8., 19., 64., 64., 64., 64., 64., 64., 64., 64., 28., 8.,
          8., 16., 63., 56., 58., 52., 64., 64., 64., 64., 64., 64., 64.,
          64., 64., 64., 64., 64., 35., 8., 8., 21., 64., 64., 64., 64.,
          64., 64., 64., 64., 31., 8., 14., 33., 0., 0., 10., 43., 20.,
          42., 62., 64., 64., 61., 36., 12., 42., 4., 0., 0., 53., 0.,
          0., 44., 62., 48., 48., 61., 61., 37., 37., 57., 54., 0., 0.,
          47., 17., 0., 0., 4., 64., 64., 64., 64., 64., 64., 64., 64.,
          16., 7., 8., 29., 39., 28., 30., 21., 64., 64., 64., 64., 64.,
          64., 64., 64., 35., 32., 32., 37., 0., 0., 0., 32., 0., 0., 0.,
          29., 40., 40., 40., 57., 64., 64., 64., 63., 0., 0., 0., 31.,
          0., 0., 0., 34., 48., 48., 48., 60., 64., 64., 64., 60., 0.,
          0., 0., 44., 33., 24., 14., 44., 64., 64., 64., 63., 38., 30.,
          34., 20., 0., 0., 10., 56., 27., 15., 20., 54., 64., 64., 64.,
          64., 48., 40., 40., 27., 14., 14., 25., 59., 64., 64., 64.,
          64., 64., 64., 64., 64., 64., 64., 64., 49., 0., 0., 0., 41.,
          0., 0., 8., 45., 43., 49., 61., 33., 51., 23., 1., 0., 0., 0.,
          24., 51., 0., 0., 6., 43., 16., 16., 16., 45., 64., 64., 64.,
          52., 0., 0., 39., 44., 0., 0., 28., 61., 32., 32., 32., 59.,
          64., 64., 64., 52., 0., 0., 23., 60., 0., 0., 5., 36., 0., 9.,
          27., 55., 51., 63., 48., 23., 7., 0., 32., 41., 46., 0., 8.,
          58., 64., 64., 64., 52., 50., 8., 0., 0., 0., 0., 21., 54., 0.,
          0., 2., 33., 0., 1., 17., 47., 41., 55., 40., 14., 0., 0., 0.,
          32., 0., 0., 0., 24., 48., 48., 34., 52., 64., 64., 64., 59.,
          2., 0., 0., 47., 18., 0., 0., 32., 64., 64., 64., 64., 53.,
          48., 56., 35., 0., 0., 8., 53., 0., 0., 2., 45., 16., 16., 16.,
          43., 64., 64., 64., 56., 0., 0., 12., 53., 6., 0., 2., 34.,
          59., 51., 50., 58., 53., 48., 49., 36., 0., 0., 23., 52., 0.,
          0., 11., 56., 24., 24., 22., 54., 64., 64., 64., 56., 64., 62.,
          64., 58., 5., 54., 45., 8., 39., 42., 47., 31., 49., 2., 3.,
          55., 58., 56., 56., 56., 19., 58., 55., 23., 46., 42., 43.,
          43., 46., 3., 2., 46., 48., 40., 40., 44., 34., 51., 52., 29.,
          44., 23., 40., 40., 28., 0., 1., 41., 45., 32., 32., 40., 50.,
          54., 56., 48., 38., 35., 58., 44., 34., 0., 8., 51., 62., 56.,
          56., 56., 11., 52., 53., 12., 37., 30., 33., 30., 47., 0., 0.,
          46., 61., 58., 64., 64., 53., 64., 63., 50., 58., 64., 64.,
          57., 55., 19., 27., 60., 7., 15., 32., 50., 60., 59., 51., 17.,
          27., 30., 34., 57., 42., 0., 0., 13., 64., 64., 64., 64., 20.,
          58., 52., 16., 51., 42., 54., 39., 42., 1., 5., 51., 56., 58.,
          63., 63., 1., 48., 28., 0., 37., 39., 53., 23., 46., 1., 5.,
          49., 20., 38., 51., 57., 38., 49., 32., 0., 18., 47., 55., 35.,
          49., 3., 3., 29., 20., 34., 51., 58., 34., 47., 28., 0., 12.,
          48., 55., 30., 48., 5., 2., 29., 62., 64., 64., 63., 16., 62.,
          64., 27., 43., 42., 29., 44., 41., 3., 0., 49., 64., 64., 64.,
          61., 4., 51., 47., 9., 39., 32., 42., 37., 42., 2., 3., 48.,
          52., 48., 48., 49., 13., 44., 51., 12., 43., 12., 29., 49.,
          14., 0., 0., 35., 58., 61., 64., 64., 3., 51., 34., 0., 43.,
          31., 51., 23., 36., 0., 5., 51., 52., 48., 47., 47., 29., 46.,
          49., 29., 25., 34., 58., 46., 35., 0., 5., 47., 64., 64., 64.,
          64., 11., 55., 43., 8., 51., 47., 61., 33., 40., 1., 9., 53.,
          64., 64., 64., 64., 16., 16., 16., 41., 0., 0., 0., 32., 0.,
          0., 0., 31., 60., 56., 56., 58., 32., 31., 32., 48., 0., 0.,
          0., 28., 0., 0., 0., 30., 43., 34., 32., 42., 38., 32., 32.,
          45., 0., 0., 0., 24., 0., 0., 2., 48., 43., 32., 32., 39., 54.,
          48., 54., 58., 6., 0., 0., 20., 0., 0., 7., 52., 64., 60., 58.,
          42., 64., 64., 64., 63., 64., 64., 64., 64., 8., 10., 22., 64.,
          64., 61., 63., 64., 16., 16., 16., 34., 0., 0., 0., 24., 0.,
          0., 0., 23., 0., 0., 16., 42., 51., 58., 59., 48., 44., 18.,
          1., 20., 4., 0., 2., 44., 64., 64., 64., 64., 32., 33., 32.,
          57., 0., 0., 0., 48., 0., 0., 0., 48., 64., 64., 62., 62., 5.,
          8., 8., 30., 0., 0., 0., 27., 0., 0., 0., 25., 3., 23., 41.,
          60., 62., 50., 32., 41., 13., 0., 0., 32., 0., 0., 0., 31., 3.,
          18., 36., 55., 60., 54., 33., 42., 14., 1., 0., 32., 0., 0.,
          0., 32., 62., 64., 64., 64., 18., 24., 21., 52., 0., 0., 0.,
          57., 0., 0., 0., 53., 64., 64., 64., 64., 16., 16., 18., 41.,
          0., 0., 0., 29., 0., 0., 0., 24., 48., 42., 40., 45., 30., 28.,
          32., 41., 0., 0., 0., 17., 0., 0., 2., 47., 61., 61., 56., 56.,
          8., 8., 10., 37., 0., 0., 0., 32., 0., 0., 0., 32., 64., 64.,
          64., 64., 24., 27., 31., 56., 0., 0., 0., 48., 0., 0., 0., 48.,
          53., 45., 46., 48., 46., 40., 40., 49., 0., 0., 0., 21., 0.,
          0., 9., 53., 64., 56., 46., 46., 12., 34., 47., 33., 9., 28.,
          49., 40., 64., 59., 43., 40., 48., 38., 32., 39., 19., 42.,
          49., 29., 14., 31., 36., 23., 56., 51., 47., 54., 64., 59.,
          45., 44., 12., 35., 53., 33., 6., 30., 50., 42., 63., 62., 42.,
          40., 50., 37., 27., 42., 29., 50., 54., 33., 20., 35., 39.,
          28., 59., 56., 56., 59., 63., 53., 40., 40., 4., 31., 43., 30.,
          2., 25., 42., 33., 61., 52., 32., 32., 12., 22., 31., 41., 41.,
          51., 48., 37., 8., 35., 45., 37., 56., 40., 29., 24., 64., 64.,
          64., 64., 38., 52., 58., 44., 31., 45., 58., 49., 64., 64.,
          62., 63., 64., 62., 48., 48., 13., 34., 47., 33., 9., 30., 45.,
          44., 64., 64., 50., 44., 31., 41., 46., 45., 38., 44., 45.,
          46., 1., 23., 46., 27., 55., 63., 45., 43., 30., 39., 43., 42.,
          36., 42., 40., 42., 1., 21., 43., 28., 52., 60., 40., 38., 22.,
          39., 53., 57., 41., 53., 60., 35., 35., 53., 57., 32., 25.,
          40., 51., 55., 63., 53., 40., 40., 6., 29., 45., 32., 4., 29.,
          45., 36., 63., 55., 39., 34., 51., 38., 34., 33., 14., 39.,
          49., 27., 5., 28., 37., 22., 57., 52., 48., 52., 63., 61., 52.,
          50., 15., 36., 49., 37., 12., 30., 48., 44., 64., 60., 46.,
          42., 54., 37., 25., 39., 32., 53., 56., 31., 29., 39., 35.,
          18., 57., 55., 56., 58., 63., 64., 63., 64., 37., 53., 60.,
          44., 38., 52., 62., 49., 64., 64., 59., 56., 64., 58., 56.,
          51., 33., 49., 7., 0., 0., 13., 52., 24., 55., 53., 55., 64.,
          64., 59., 59., 62., 38., 51., 11., 0., 0., 14., 53., 30., 56.,
          56., 60., 64., 50., 40., 40., 44., 34., 50., 6., 8., 9., 18.,
          53., 14., 47., 32., 41., 45., 50., 40., 40., 44., 55., 53.,
          13., 14., 9., 45., 58., 14., 49., 40., 56., 55., 63., 61., 55.,
          56., 34., 46., 6., 0., 0., 13., 53., 21., 56., 51., 53., 64.,
          8., 14., 29., 44., 58., 55., 15., 1., 4., 22., 56., 47., 46.,
          35., 21., 7., 64., 64., 64., 64., 41., 64., 38., 24., 15., 26.,
          63., 36., 64., 64., 64., 64., 64., 64., 64., 64., 25., 53., 9.,
          0., 0., 13., 52., 21., 56., 49., 53., 64., 33., 64., 64., 64.,
          60., 60., 57., 60., 64., 59., 56., 56., 43., 64., 64., 64.,
          21., 39., 51., 53., 56., 51., 12., 0., 1., 21., 53., 45., 34.,
          49., 57., 43., 21., 38., 49., 52., 55., 53., 13., 0., 0., 22.,
          50., 38., 29., 45., 54., 43., 58., 64., 64., 64., 17., 55.,
          26., 6., 0., 8., 53., 23., 58., 56., 59., 61., 64., 58., 56.,
          56., 34., 50., 12., 0., 0., 15., 51., 30., 58., 57., 59., 64.,
          36., 16., 16., 19., 38., 52., 17., 21., 4., 26., 48., 6., 44.,
          39., 51., 50., 64., 64., 64., 64., 22., 53., 10., 0., 0., 15.,
          57., 21., 56., 56., 58., 63., 48., 37., 40., 43., 54., 48., 3.,
          8., 9., 51., 53., 9., 49., 34., 53., 44., 64., 64., 64., 64.,
          30., 63., 35., 15., 13., 31., 62., 38., 64., 64., 64., 64.,
          33., 58., 54., 38., 46., 0., 0., 40., 39., 0., 0., 38., 43.,
          49., 49., 47., 28., 62., 62., 28., 44., 20., 17., 40., 39.,
          10., 8., 36., 34., 64., 64., 39., 26., 62., 62., 29., 40., 3.,
          2., 35., 37., 1., 0., 35., 24., 60., 60., 37., 35., 57., 59.,
          38., 46., 1., 0., 42., 43., 0., 0., 39., 39., 52., 52., 44.,
          27., 62., 62., 28., 63., 45., 42., 63., 64., 39., 38., 64.,
          31., 64., 64., 36., 5., 44., 64., 45., 40., 22., 3., 25., 26.,
          0., 10., 45., 44., 54., 56., 13., 30., 64., 63., 27., 59., 12.,
          12., 56., 56., 9., 9., 57., 28., 63., 64., 33., 29., 51., 50.,
          30., 43., 0., 0., 39., 41., 0., 0., 41., 27., 51., 50., 32.,
          34., 53., 53., 36., 39., 0., 0., 32., 33., 0., 0., 30., 45.,
          42., 41., 46., 13., 50., 56., 46., 48., 11., 0., 33., 33., 0.,
          0., 40., 52., 27., 46., 35., 19., 57., 63., 37., 58., 17., 1.,
          53., 51., 0., 8., 56., 43., 59., 61., 25., 12., 51., 48., 44.,
          43., 7., 0., 33., 38., 0., 0., 40., 47., 26., 40., 29., 23.,
          55., 54., 33., 46., 1., 0., 42., 43., 0., 0., 34., 38., 46.,
          49., 41., 24., 60., 59., 26., 35., 2., 4., 35., 27., 0., 0.,
          25., 34., 54., 52., 37., 25., 52., 51., 31., 47., 1., 0., 40.,
          44., 0., 0., 39., 28., 54., 51., 32., 29., 64., 64., 31., 55.,
          8., 7., 54., 55., 5., 3., 54., 29., 63., 64., 34., 21., 57.,
          59., 24., 45., 19., 18., 42., 38., 6., 3., 31., 30., 63., 64.,
          32., 64., 64., 63., 63., 44., 8., 43., 8., 47., 18., 36., 0.,
          45., 62., 13., 0., 44., 36., 32., 44., 63., 64., 59., 59., 41.,
          34., 16., 5., 53., 59., 7., 0., 50., 40., 40., 46., 52., 40.,
          50., 46., 39., 18., 24., 2., 41., 61., 7., 0., 58., 56., 56.,
          56., 50., 30., 42., 16., 44., 18., 31., 0., 51., 63., 15., 0.,
          3., 9., 25., 50., 59., 62., 44., 27., 30., 18., 14., 0., 57.,
          57., 3., 0., 64., 64., 64., 64., 59., 29., 53., 24., 59., 31.,
          42., 0., 52., 64., 24., 0., 64., 64., 64., 64., 40., 11., 24.,
          0., 42., 18., 24., 0., 50., 63., 11., 0., 31., 61., 64., 64.,
          60., 64., 63., 56., 64., 62., 53., 0., 50., 64., 37., 0., 59.,
          56., 56., 56., 40., 16., 36., 0., 37., 9., 30., 0., 47., 58.,
          10., 0., 16., 31., 44., 61., 54., 40., 28., 0., 35., 17., 24.,
          0., 55., 54., 9., 0., 52., 56., 61., 54., 56., 44., 43., 16.,
          56., 37., 28., 0., 41., 61., 8., 0., 19., 28., 46., 57., 54.,
          31., 32., 1., 40., 11., 24., 0., 52., 47., 13., 0., 60., 56.,
          56., 56., 43., 18., 40., 8., 47., 11., 32., 0., 43., 62., 14.,
          0., 50., 44., 40., 43., 45., 40., 49., 39., 39., 16., 24., 0.,
          48., 64., 12., 0., 64., 64., 64., 64., 35., 14., 32., 0., 36.,
          13., 31., 0., 52., 60., 13., 0., 54., 48., 48., 49., 54., 50.,
          52., 51., 41., 29., 16., 3., 50., 61., 3., 0., 64., 64., 64.,
          64., 54., 34., 43., 20., 56., 30., 32., 0., 48., 64., 19., 0.,
          39., 44., 49., 20., 36., 0., 0., 41., 44., 9., 16., 41., 18.,
          38., 37., 41., 32., 64., 48., 2., 35., 0., 13., 27., 29., 0.,
          10., 55., 34., 58., 53., 16., 41., 52., 56., 20., 39., 0., 3.,
          41., 47., 11., 22., 41., 19., 40., 38., 46., 28., 64., 50., 3.,
          40., 14., 23., 34., 36., 10., 19., 62., 31., 64., 56., 23.,
          31., 64., 62., 24., 64., 40., 54., 60., 64., 38., 59., 62.,
          32., 64., 64., 28., 11., 55., 57., 29., 41., 12., 4., 54., 22.,
          1., 34., 36., 43., 55., 33., 26., 3., 5., 24., 43., 54., 63.,
          45., 29., 34., 26., 57., 30., 56., 51., 13., 40., 26., 61.,
          60., 23., 59., 14., 15., 56., 55., 11., 36., 58., 28., 62.,
          63., 55., 25., 50., 48., 26., 42., 1., 1., 43., 40., 0., 8.,
          50., 27., 47., 49., 51., 40., 43., 47., 24., 28., 0., 0., 28.,
          41., 11., 17., 38., 11., 32., 31., 39., 11., 54., 56., 36.,
          43., 7., 0., 41., 39., 0., 9., 55., 46., 33., 49., 46., 23.,
          57., 48., 3., 50., 1., 41., 23., 48., 0., 46., 27., 30., 55.,
          52., 52., 11., 50., 53., 34., 41., 7., 0., 43., 35., 0., 11.,
          50., 44., 29., 47., 45., 30., 43., 47., 21., 36., 0., 0., 35.,
          43., 5., 13., 40., 16., 46., 41., 41., 28., 56., 45., 1., 29.,
          0., 14., 18., 23., 0., 8., 50., 35., 55., 50., 12., 26., 50.,
          54., 22., 42., 0., 1., 39., 42., 0., 10., 55., 28., 51., 53.,
          50., 36., 64., 46., 1., 36., 12., 27., 25., 34., 8., 19., 58.,
          38., 64., 51., 17., 29., 63., 59., 19., 54., 5., 16., 50., 55.,
          9., 33., 52., 26., 61., 57., 54., 62., 60., 56., 56., 46., 28.,
          40., 16., 50., 40., 53., 18., 41., 49., 27., 59., 63., 59.,
          60., 60., 40., 16., 25., 0., 41., 18., 28., 0., 49., 58., 50.,
          57., 64., 56., 64., 64., 64., 60., 64., 60., 64., 62., 64.,
          58., 45., 64., 45., 62., 64., 64., 64., 64., 59., 28., 42.,
          18., 55., 37., 47., 21., 53., 61., 52., 64., 64., 64., 63.,
          62., 28., 20., 24., 5., 42., 40., 52., 7., 41., 43., 24., 57.,
          25., 36., 54., 57., 51., 37., 30., 0., 36., 16., 23., 7., 53.,
          52., 59., 58., 61., 64., 64., 63., 56., 18., 61., 26., 48.,
          35., 63., 35., 15., 57., 23., 57., 18., 32., 48., 59., 52.,
          33., 30., 0., 40., 10., 26., 3., 52., 46., 58., 55., 60., 61.,
          57., 58., 35., 18., 27., 2., 44., 34., 51., 10., 39., 48., 27.,
          59., 45., 40., 40., 41., 35., 33., 47., 25., 50., 52., 49.,
          38., 13., 11., 0., 34., 60., 58., 59., 56., 32., 19., 25., 0.,
          41., 33., 55., 14., 41., 46., 11., 53., 54., 48., 48., 52.,
          37., 29., 51., 29., 53., 51., 61., 45., 18., 28., 7., 48., 64.,
          64., 64., 64., 50., 29., 40., 11., 55., 44., 63., 29., 38.,
          49., 18., 58., 63., 59., 56., 55., 43., 20., 27., 4., 49., 38.,
          53., 17., 30., 41., 20., 56., 47., 32., 35., 41., 39., 29.,
          46., 32., 44., 41., 50., 31., 19., 26., 2., 43., 47., 40., 40.,
          46., 54., 51., 59., 53., 52., 50., 62., 44., 28., 33., 9., 52.,
          37., 46., 0., 41., 48., 48., 9., 34., 36., 22., 32., 40., 38.,
          4., 60., 53., 44., 53., 7., 47., 29., 42., 18., 17., 29., 16.,
          43., 15., 37., 9., 49., 51., 32., 43., 23., 41., 48., 37., 12.,
          42., 41., 21., 23., 35., 43., 18., 57., 51., 41., 56., 18.,
          59., 39., 56., 27., 22., 28., 31., 51., 18., 45., 19., 62.,
          56., 33., 52., 24., 42., 57., 50., 29., 56., 57., 34., 36.,
          51., 38., 34., 63., 53., 39., 42., 0., 42., 54., 49., 11., 32.,
          36., 21., 33., 41., 37., 5., 59., 57., 41., 42., 8., 56., 40.,
          52., 13., 24., 30., 22., 43., 31., 51., 11., 55., 56., 41.,
          50., 24., 62., 39., 58., 25., 28., 33., 31., 51., 37., 55.,
          17., 59., 46., 44., 48., 0., 38., 52., 47., 15., 32., 38., 21.,
          39., 41., 36., 2., 59., 58., 8., 7., 8., 56., 57., 58., 5.,
          19., 25., 29., 50., 43., 50., 6., 36., 33., 31., 47., 17., 43.,
          47., 32., 14., 39., 40., 13., 28., 35., 36., 17., 53., 49.,
          14., 40., 22., 63., 55., 64., 62., 64., 64., 64., 64., 62.,
          64., 43., 61., 38., 38., 60., 23., 47., 57., 40., 24., 55.,
          56., 25., 38., 53., 32., 24., 62., 51., 44., 43., 0., 31., 43.,
          39., 6., 20., 30., 15., 31., 28., 25., 0., 51., 56., 15., 39.,
          21., 55., 57., 53., 14., 52., 56., 38., 24., 59., 37., 17.,
          64., 43., 10., 24., 14., 53., 49., 48., 9., 33., 34., 19., 24.,
          40., 52., 15., 58., 42., 9., 20., 16., 51., 48., 49., 7., 36.,
          34., 22., 21., 37., 48., 13., 53., 39., 39., 0., 0., 0., 50.,
          24., 24., 24., 52., 32., 32., 32., 39., 0., 0., 0., 42., 0.,
          0., 0., 44., 32., 32., 35., 40., 32., 32., 35., 33., 0., 0.,
          0., 37., 0., 0., 0., 49., 24., 24., 26., 52., 32., 32., 32.,
          36., 0., 0., 0., 51., 2., 0., 0., 44., 32., 32., 38., 54., 47.,
          48., 52., 42., 1., 0., 3., 50., 0., 0., 0., 58., 30., 31., 28.,
          60., 48., 48., 48., 48., 0., 0., 0., 36., 0., 0., 0., 48., 19.,
          19., 19., 52., 32., 32., 32., 39., 0., 0., 0., 52., 4., 0., 0.,
          44., 23., 23., 26., 50., 40., 40., 45., 43., 1., 0., 1., 38.,
          0., 0., 0., 49., 24., 24., 19., 55., 40., 40., 40., 40., 0.,
          0., 0., 55., 9., 0., 0., 49., 40., 40., 42., 55., 48., 48.,
          54., 46., 6., 0., 5., 40., 0., 0., 0., 51., 24., 24., 24., 55.,
          37., 33., 36., 40., 0., 0., 0., 64., 19., 0., 0., 64., 58.,
          54., 51., 64., 64., 64., 64., 64., 17., 0., 0., 48., 0., 1.,
          24., 42., 47., 63., 53., 49., 19., 1., 4., 42., 0., 0., 0.,
          48., 0., 0., 0., 58., 40., 41., 40., 59., 42., 41., 41., 48.,
          0., 0., 0., 32., 0., 0., 0., 40., 16., 16., 16., 48., 32., 32.,
          32., 31., 0., 0., 0., 40., 0., 0., 5., 53., 46., 62., 51., 52.,
          20., 1., 0., 39., 0., 0., 0., 48., 0., 0., 0., 58., 38., 32.,
          25., 55., 26., 27., 32., 54., 0., 0., 0., 40., 0., 0., 5., 50.,
          37., 48., 49., 54., 23., 5., 0., 37., 0., 0., 0., 57., 63.,
          62., 43., 0., 0., 1., 42., 0., 0., 0., 41., 48., 48., 51., 49.,
          53., 47., 47., 29., 15., 8., 11., 37., 1., 0., 0., 24., 50.,
          40., 40., 33., 56., 56., 56., 39., 0., 0., 0., 42., 0., 0., 0.,
          42., 56., 56., 56., 41., 47., 40., 40., 23., 46., 39., 40.,
          54., 4., 0., 0., 23., 47., 36., 36., 31., 64., 64., 64., 43.,
          15., 16., 16., 57., 16., 16., 16., 54., 64., 64., 64., 49.,
          58., 56., 62., 45., 0., 0., 0., 38., 0., 0., 0., 37., 56., 56.,
          56., 54., 52., 41., 40., 28., 23., 13., 11., 40., 5., 0., 0.,
          30., 45., 32., 33., 23., 60., 63., 64., 39., 0., 0., 0., 41.,
          0., 0., 0., 38., 56., 56., 56., 49., 48., 40., 40., 22., 49.,
          40., 40., 54., 6., 0., 0., 27., 46., 34., 37., 31., 57., 64.,
          63., 47., 0., 0., 0., 36., 0., 0., 0., 37., 47., 48., 48., 51.,
          64., 64., 64., 49., 54., 55., 59., 64., 59., 58., 59., 64.,
          64., 64., 64., 52., 64., 64., 64., 44., 19., 20., 25., 57., 8.,
          8., 9., 55., 64., 64., 64., 50., 41., 45., 59., 52., 42., 14.,
          2., 25., 3., 8., 27., 40., 50., 30., 12., 0., 55., 51., 55.,
          37., 0., 0., 0., 34., 0., 0., 0., 29., 48., 48., 48., 48., 29.,
          45., 59., 51., 26., 14., 2., 35., 0., 0., 13., 46., 42., 54.,
          50., 20., 58., 64., 64., 40., 0., 4., 12., 55., 0., 0., 15.,
          57., 56., 64., 61., 26., 27., 41., 57., 52., 24., 15., 1., 33.,
          0., 0., 3., 44., 35., 52., 51., 23., 58., 39., 9., 0., 0., 21.,
          52., 51., 0., 14., 47., 53., 58., 45., 15., 0., 53., 32., 6.,
          0., 3., 21., 47., 40., 0., 17., 45., 51., 51., 41., 13., 0.,
          45., 14., 0., 0., 25., 46., 50., 23., 2., 16., 45., 39., 49.,
          24., 3., 0., 48., 18., 0., 0., 44., 59., 52., 28., 2., 15.,
          56., 37., 46., 28., 4., 0., 58., 35., 9., 0., 20., 44., 63.,
          48., 10., 36., 57., 59., 63., 45., 18., 3., 59., 32., 7., 0.,
          9., 28., 51., 43., 2., 20., 42., 52., 60., 44., 16., 0., 44.,
          11., 0., 0., 36., 52., 43., 16., 4., 13., 49., 43., 50., 30.,
          6., 0., 62., 41., 14., 0., 4., 29., 57., 47., 3., 29., 52.,
          52., 62., 42., 16., 0., 49., 15., 0., 0., 55., 61., 50., 20.,
          8., 24., 56., 34., 47., 19., 1., 0., 50., 39., 10., 0., 3.,
          22., 51., 47., 3., 22., 48., 50., 57., 40., 15., 0., 56., 28.,
          2., 0., 60., 63., 56., 23., 57., 64., 62., 39., 62., 34., 8.,
          0., 54., 33., 23., 8., 24., 26., 55., 50., 9., 38., 30., 2.,
          50., 9., 0., 0., 62., 34., 10., 0., 20., 44., 61., 47., 14.,
          38., 59., 56., 64., 46., 18., 0., 50., 34., 8., 0., 1., 22.,
          48., 41., 0., 14., 42., 48., 51., 42., 14., 0., 60., 58., 44.,
          29., 0., 7., 38., 61., 4., 42., 48., 9., 57., 28., 1., 0., 61.,
          54., 40., 24., 0., 8., 37., 61., 3., 37., 47., 9., 52., 26.,
          1., 0., 62., 43., 20., 1., 10., 37., 60., 55., 12., 44., 63.,
          43., 63., 43., 12., 0., 33., 40., 37., 25., 24., 33., 35., 36.,
          23., 32., 40., 37., 37., 39., 32., 21., 51., 39., 20., 3., 31.,
          30., 54., 44., 23., 35., 48., 35., 34., 31., 20., 3., 31., 38.,
          37., 24., 25., 37., 35., 33., 32., 37., 40., 27., 35., 34.,
          37., 32., 47., 32., 16., 1., 26., 29., 62., 43., 45., 60., 43.,
          22., 26., 22., 29., 16., 52., 48., 35., 26., 32., 50., 62.,
          51., 42., 53., 52., 36., 45., 50., 46., 34., 37., 37., 36.,
          21., 23., 35., 34., 38., 28., 38., 38., 33., 34., 40., 40.,
          30., 52., 30., 12., 2., 33., 27., 54., 42., 28., 38., 50., 34.,
          39., 28., 18., 5., 43., 39., 36., 21., 28., 37., 47., 42., 29.,
          38., 44., 36., 42., 38., 41., 27., 53., 35., 15., 2., 34., 38.,
          55., 37., 51., 58., 44., 27., 36., 31., 25., 9., 37., 39., 36.,
          22., 25., 38., 42., 35., 30., 39., 41., 29., 37., 43., 43.,
          28., 53., 42., 38., 26., 25., 32., 45., 15., 30., 37., 60.,
          41., 37., 28., 6., 0., 52., 52., 33., 20., 34., 48., 56., 48.,
          38., 46., 52., 41., 53., 52., 41., 26., 35., 33., 34., 19.,
          23., 35., 33., 38., 23., 33., 32., 32., 35., 35., 35., 23.,
          40., 40., 53., 57., 29., 50., 35., 6., 23., 34., 57., 59., 41.,
          40., 21., 0., 46., 47., 33., 20., 21., 48., 56., 38., 26., 43.,
          58., 48., 45., 51., 33., 13., 39., 40., 52., 54., 27., 47.,
          33., 4., 24., 34., 55., 57., 38., 38., 21., 0., 49., 4., 6.,
          49., 25., 51., 50., 20., 13., 51., 51., 13., 53., 9., 10., 52.,
          30., 0., 4., 44., 39., 46., 55., 24., 29., 55., 53., 12., 39.,
          2., 10., 52., 33., 0., 0., 37., 45., 46., 39., 20., 19., 42.,
          52., 31., 36., 0., 3., 42., 49., 9., 1., 36., 50., 61., 48.,
          16., 19., 46., 60., 47., 33., 1., 8., 47., 43., 6., 10., 49.,
          45., 55., 61., 41., 41., 60., 63., 31., 47., 8., 14., 54., 54.,
          12., 9., 52., 22., 55., 57., 31., 16., 55., 57., 19., 57., 19.,
          14., 54., 37., 0., 0., 33., 53., 49., 40., 24., 21., 44., 55.,
          32., 43., 1., 5., 47., 45., 6., 5., 46., 25., 51., 51., 27.,
          17., 55., 53., 16., 53., 7., 9., 52., 50., 9., 7., 50., 28.,
          60., 57., 36., 18., 60., 59., 21., 58., 19., 14., 55., 47., 7.,
          0., 33., 61., 57., 43., 26., 32., 45., 61., 51., 39., 1., 8.,
          47., 50., 8., 7., 48., 45., 60., 59., 48., 37., 63., 62., 32.,
          56., 13., 14., 57., 10., 0., 1., 39., 58., 44., 44., 18., 18.,
          44., 40., 56., 45., 3., 0., 10., 56., 14., 12., 53., 62., 62.,
          64., 63., 58., 64., 64., 57., 61., 24., 22., 60., 53., 8., 4.,
          46., 15., 53., 53., 25., 13., 56., 52., 11., 54., 13., 9., 51.,
          4., 0., 2., 42., 50., 35., 46., 19., 10., 53., 46., 39., 48.,
          8., 0., 20., 52., 9., 12., 58., 25., 57., 58., 26., 15., 60.,
          59., 20., 58., 20., 15., 58., 4., 0., 3., 45., 49., 36., 46.,
          17., 7., 51., 47., 34., 48., 6., 1., 21., 53., 11., 0., 0.,
          27., 63., 34., 27., 21., 58., 47., 47., 61., 24., 0., 0., 53.,
          15., 0., 0., 11., 51., 38., 32., 10., 53., 47., 40., 58., 23.,
          0., 0., 49., 7., 0., 0., 34., 52., 32., 35., 12., 42., 33.,
          40., 45., 4., 0., 0., 54., 12., 0., 0., 11., 48., 32., 25.,
          10., 49., 38., 32., 52., 14., 0., 0., 54., 17., 0., 0., 23.,
          55., 37., 32., 16., 53., 51., 41., 61., 30., 1., 0., 46., 9.,
          0., 0., 57., 60., 37., 39., 9., 39., 49., 53., 50., 14., 0.,
          1., 59., 19., 0., 0., 33., 62., 46., 40., 26., 58., 55., 48.,
          62., 29., 1., 0., 43., 12., 5., 32., 42., 54., 63., 52., 17.,
          40., 7., 1., 51., 4., 0., 0., 55., 9., 0., 0., 58., 59., 48.,
          47., 54., 64., 64., 64., 60., 20., 0., 0., 56., 15., 0., 0.,
          13., 53., 29., 20., 8., 50., 49., 40., 56., 26., 0., 0., 58.,
          29., 2., 12., 6., 48., 62., 49., 16., 51., 9., 0., 51., 8., 0.,
          0., 57., 16., 0., 0., 20., 59., 32., 47., 8., 47., 63., 32.,
          63., 43., 8., 0., 56., 24., 1., 8., 8., 47., 59., 51., 10.,
          50., 11., 0., 53., 12., 0., 0., 52., 15., 0., 0., 11., 52.,
          40., 32., 9., 46., 46., 40., 55., 22., 0., 0., 48., 7., 0., 0.,
          14., 52., 27., 24., 8., 50., 36., 32., 50., 16., 0., 0., 43.,
          4., 0., 0., 32., 53., 22., 20., 4., 37., 38., 40., 46., 10.,
          0., 0., 45., 10., 0., 0., 54., 63., 38., 34., 1., 43., 47.,
          45., 46., 14., 0., 0., 0., 0., 2., 50., 31., 1., 46., 49., 32.,
          37., 27., 32., 56., 36., 0., 28., 55., 0., 15., 60., 64., 25.,
          57., 55., 64., 50., 5., 48., 56., 5., 0., 50., 0., 0., 5., 53.,
          32., 1., 47., 49., 32., 38., 22., 32., 56., 37., 0., 31., 33.,
          0., 6., 52., 40., 10., 56., 46., 51., 57., 22., 24., 60., 18.,
          0., 24., 51., 5., 8., 48., 27., 12., 55., 45., 45., 55., 13.,
          24., 51., 7., 2., 46., 27., 0., 8., 54., 32., 9., 55., 45.,
          44., 54., 14., 32., 59., 12., 0., 32., 32., 0., 12., 56., 32.,
          16., 59., 49., 48., 59., 16., 32., 59., 15., 0., 32., 34., 0.,
          19., 61., 48., 17., 61., 57., 59., 62., 21., 44., 62., 18., 0.,
          47., 48., 0., 19., 63., 48., 20., 63., 61., 59., 63., 23., 48.,
          64., 26., 0., 48., 26., 0., 7., 49., 30., 10., 54., 39., 41.,
          55., 15., 22., 54., 8., 2., 34., 64., 16., 9., 45., 64., 47.,
          62., 64., 64., 64., 62., 64., 60., 27., 25., 64., 31., 0., 6.,
          52., 32., 8., 53., 30., 41., 53., 14., 16., 55., 9., 0., 16.,
          50., 13., 12., 51., 27., 29., 62., 56., 59., 63., 29., 19.,
          52., 11., 6., 47., 35., 0., 7., 53., 40., 10., 54., 48., 50.,
          51., 19., 32., 57., 14., 0., 32., 23., 0., 7., 53., 38., 9.,
          51., 43., 43., 52., 16., 28., 60., 13., 0., 32., 29., 0., 4.,
          47., 25., 15., 53., 39., 44., 53., 14., 17., 47., 5., 0., 46.,
          44., 7., 7., 50., 31., 33., 62., 59., 62., 58., 22., 26., 38.,
          5., 10., 53., 16., 38., 35., 28., 36., 36., 39., 34., 29., 47.,
          48., 31., 31., 38., 40., 2., 24., 52., 56., 31., 48., 51., 60.,
          36., 38., 59., 61., 33., 32., 51., 52., 15., 23., 50., 53.,
          24., 49., 50., 46., 46., 47., 53., 57., 41., 32., 42., 44.,
          39., 15., 40., 39., 27., 36., 38., 46., 37., 33., 50., 50.,
          35., 30., 41., 43., 5., 9., 43., 47., 44., 40., 45., 47., 22.,
          34., 50., 53., 21., 39., 39., 42., 0., 20., 47., 45., 23., 33.,
          35., 42., 38., 25., 48., 48., 28., 24., 46., 36., 17., 25.,
          53., 52., 27., 46., 46., 43., 40., 42., 30., 42., 36., 30.,
          42., 40., 18., 16., 40., 45., 27., 38., 37., 48., 42., 33.,
          52., 52., 36., 28., 40., 45., 7., 21., 39., 38., 34., 35., 42.,
          46., 24., 31., 47., 50., 21., 43., 35., 41., 0., 17., 25., 26.,
          19., 18., 32., 43., 15., 22., 39., 45., 16., 26., 29., 28.,
          18., 20., 34., 38., 25., 39., 38., 36., 39., 36., 43., 47.,
          32., 32., 31., 37., 38., 17., 31., 33., 19., 24., 40., 54.,
          16., 20., 55., 51., 18., 26., 23., 29., 14., 21., 47., 48.,
          26., 43., 43., 46., 36., 39., 56., 59., 32., 34., 36., 42.,
          38., 17., 44., 39., 41., 37., 41., 45., 22., 29., 50., 50.,
          26., 40., 36., 40., 0., 19., 40., 37., 21., 27., 32., 44., 32.,
          27., 47., 46., 29., 25., 40., 34., 10., 16., 43., 40., 23.,
          33., 33., 42., 34., 26., 47., 47., 25., 24., 42., 35., 12., 6.,
          55., 52., 2., 28., 56., 60., 33., 40., 4., 8., 38., 18., 0.,
          0., 21., 6., 57., 52., 6., 30., 64., 64., 28., 54., 14., 14.,
          54., 35., 0., 0., 35., 2., 48., 47., 4., 28., 64., 64., 31.,
          49., 30., 30., 57., 29., 0., 0., 19., 7., 59., 53., 2., 40.,
          64., 64., 38., 62., 64., 64., 62., 44., 2., 2., 46., 5., 59.,
          60., 7., 33., 61., 60., 36., 43., 9., 6., 37., 27., 0., 0.,
          20., 15., 57., 54., 16., 56., 64., 64., 54., 64., 64., 64.,
          64., 51., 8., 6., 45., 2., 51., 48., 2., 28., 64., 64., 30.,
          43., 19., 22., 41., 23., 0., 0., 18., 2., 52., 52., 4., 32.,
          64., 64., 30., 54., 28., 28., 56., 40., 0., 0., 35., 6., 55.,
          53., 4., 42., 64., 64., 36., 61., 44., 44., 61., 44., 0., 0.,
          43., 8., 58., 55., 7., 45., 64., 64., 43., 63., 61., 60., 64.,
          51., 7., 6., 46., 1., 48., 61., 19., 22., 59., 41., 50., 43.,
          8., 0., 7., 30., 0., 0., 0., 2., 51., 50., 2., 39., 64., 64.,
          39., 62., 38., 36., 61., 38., 0., 0., 36., 0., 31., 64., 51.,
          18., 64., 50., 54., 50., 30., 0., 0., 43., 0., 0., 0., 7., 52.,
          53., 8., 35., 60., 54., 45., 51., 8., 2., 50., 34., 0., 0.,
          27., 18., 0., 0., 8., 34., 2., 1., 33., 30., 56., 53., 39., 3.,
          54., 60., 8., 32., 0., 0., 22., 52., 4., 4., 52., 38., 60.,
          58., 42., 10., 62., 63., 10., 17., 0., 0., 8., 42., 4., 4.,
          41., 35., 59., 60., 43., 7., 58., 63., 15., 30., 0., 0., 24.,
          64., 50., 46., 64., 48., 64., 64., 54., 16., 64., 64., 16.,
          22., 0., 0., 11., 34., 2., 0., 34., 32., 46., 42., 44., 4.,
          59., 63., 10., 21., 0., 0., 16., 38., 10., 4., 41., 33., 62.,
          60., 37., 6., 60., 63., 11., 43., 3., 0., 31., 64., 58., 54.,
          64., 58., 64., 64., 64., 21., 64., 64., 36., 34., 1., 0., 26.,
          64., 49., 46., 64., 50., 64., 64., 54., 11., 60., 62., 15.,
          28., 0., 0., 23., 63., 27., 22., 60., 42., 64., 64., 48., 6.,
          59., 62., 13., 0., 0., 0., 19., 9., 0., 4., 46., 51., 44., 57.,
          30., 17., 59., 48., 1., 28., 0., 0., 20., 63., 27., 22., 63.,
          42., 64., 64., 50., 8., 59., 62., 13., 0., 0., 0., 34., 0., 0.,
          19., 56., 40., 38., 62., 25., 54., 64., 42., 0., 31., 0., 0.,
          22., 51., 4., 0., 49., 40., 54., 46., 50., 10., 59., 64., 23.,
          26., 24., 0., 41., 64., 55., 15., 55., 64., 64., 64., 34., 55.,
          64., 56., 7., 54., 58., 14., 46., 64., 64., 42., 64., 64., 64.,
          64., 60., 61., 64., 63., 28., 0., 0., 24., 63., 17., 42., 64.,
          59., 63., 64., 64., 14., 58., 62., 28., 0., 56., 58., 12., 36.,
          64., 64., 40., 64., 64., 64., 64., 54., 64., 64., 64., 28.,
          51., 20., 5., 55., 56., 24., 8., 64., 63., 34., 22., 64., 56.,
          24., 8., 64., 64., 30., 16., 63., 60., 40., 28., 64., 62., 28.,
          16., 64., 64., 22., 16., 64., 64., 15., 8., 64., 64., 28., 22.,
          64., 64., 16., 8., 64., 64., 16., 8., 64., 58., 38., 30., 63.,
          64., 46., 40., 64., 64., 40., 32., 64., 64., 36., 32., 64., 1.,
          40., 48., 1., 43., 50., 39., 44., 23., 53., 55., 12., 48., 33.,
          22., 45., 15., 59., 62., 24., 58., 49., 27., 62., 14., 53.,
          54., 23., 52., 51., 37., 62., 9., 49., 56., 15., 53., 45., 33.,
          61., 28., 52., 56., 23., 52., 45., 34., 59., 0., 33., 41., 1.,
          36., 63., 60., 41., 39., 55., 58., 33., 57., 40., 32., 54., 7.,
          59., 62., 20., 51., 51., 42., 61., 19., 54., 56., 25., 52.,
          51., 40., 58., 36., 60., 63., 41., 64., 64., 64., 64., 64.,
          64., 64., 64., 63., 48., 41., 61., 0., 33., 51., 5., 30., 64.,
          56., 55., 44., 60., 63., 27., 55., 33., 16., 32., 21., 57.,
          61., 24., 56., 57., 52., 64., 48., 59., 62., 48., 58., 45.,
          36., 63., 8., 56., 58., 11., 49., 52., 40., 53., 17., 54., 55.,
          19., 47., 52., 44., 50., 0., 35., 50., 2., 43., 61., 55., 55.,
          29., 52., 62., 35., 52., 46., 20., 58., 5., 43., 52., 23., 51.,
          45., 20., 40., 31., 55., 58., 33., 49., 26., 2., 30., 11., 52.,
          58., 19., 56., 29., 19., 55., 12., 55., 58., 14., 44., 35.,
          24., 57., 4., 43., 50., 6., 46., 30., 25., 48., 8., 42., 48.,
          11., 44., 33., 28., 48., 8., 50., 56., 12., 55., 42., 41., 56.,
          33., 57., 61., 34., 56., 25., 20., 55., 0., 36., 49., 4., 39.,
          48., 38., 51., 7., 41., 54., 8., 44., 40., 33., 49., 5., 41.,
          52., 14., 60., 58., 56., 63., 33., 58., 61., 41., 60., 38.,
          34., 60., 51., 21., 11., 52., 15., 54., 56., 24., 55., 26.,
          24., 53., 16., 54., 57., 22., 17., 1., 9., 54., 41., 57., 58.,
          31., 37., 24., 40., 57., 31., 61., 58., 12., 46., 37., 5., 52.,
          18., 52., 64., 33., 48., 58., 55., 59., 2., 41., 58., 6., 50.,
          12., 9., 45., 34., 60., 61., 39., 59., 38., 33., 60., 12., 54.,
          58., 22., 41., 19., 11., 42., 4., 50., 56., 11., 46., 20., 12.,
          46., 7., 45., 53., 12., 42., 32., 25., 50., 7., 49., 58., 14.,
          45., 41., 41., 50., 3., 46., 54., 6., 48., 25., 18., 47., 19.,
          54., 62., 34., 54., 41., 45., 61., 8., 49., 54., 15., 63., 41.,
          38., 61., 64., 64., 64., 64., 64., 64., 64., 64., 35., 61.,
          60., 37., 52., 43., 37., 57., 7., 61., 62., 15., 58., 37., 37.,
          59., 16., 62., 62., 16., 20., 6., 14., 51., 26., 64., 61., 38.,
          47., 51., 63., 45., 5., 49., 50., 1., 60., 28., 24., 59., 44.,
          63., 64., 47., 64., 49., 48., 64., 25., 60., 60., 24., 51.,
          40., 32., 52., 12., 57., 63., 22., 44., 46., 41., 52., 11.,
          60., 63., 20., 38., 24., 12., 43., 12., 48., 54., 17., 40.,
          36., 33., 46., 3., 45., 53., 6., 48., 44., 24., 60., 7., 55.,
          59., 16., 49., 33., 18., 54., 10., 60., 62., 27., 49., 33.,
          25., 53., 17., 58., 60., 26., 45., 56., 55., 52., 3., 51., 50.,
          6., 51., 28., 21., 56., 15., 53., 58., 21., 56., 27., 28., 59.,
          17., 56., 60., 24., 64., 64., 64., 64., 64., 64., 64., 64.,
          64., 64., 64., 64., 64., 64., 64., 64., 32., 64., 64., 64.,
          40., 64., 64., 64., 56., 64., 64., 64., 52., 64., 64., 64.,
          48., 64., 64., 64., 48., 64., 64., 64., 48., 64., 64., 64.,
          56., 64., 64., 64., 56., 64., 64., 64., 48., 64., 64., 64.,
          56., 64., 64., 64., 60., 64., 64., 64., 64., 64., 64., 64.,
          64., 64., 64., 64., 64., 64., 64., 64., 64., 64., 64., 64.,
          64., 64., 64., 64., 64., 64., 64., 64., 64., 64., 64., 64.,
          64., 64., 64., 64., 60., 64., 64., 64., 64., 64., 64., 64.,
          64., 64., 64., 64., 64., 64., 64., 64., 44., 62., 64., 64.,
          52., 64., 64., 64., 61., 64., 64., 64., 46., 64., 64., 64.,
          54., 64., 64., 64., 50., 64., 64., 64., 58., 64., 64., 64.,
          48., 64., 64., 64., 46., 64., 64., 64., 61., 64., 64., 64.,
          64., 64., 64., 64., 58., 64., 64., 64., 64., 64., 64., 64.,
          62., 64., 64., 64., 64., 64., 64., 64., 62., 64., 64., 64.,
          48., 64., 64., 64., 54., 64., 64., 64., 54., 64., 64., 64.,
          48., 64., 64., 64., 62., 64., 64., 60., 64., 64., 64., 64.,
          64., 64., 64., 64., 55., 64., 64., 45., 51., 64., 64., 55.,
          64., 64., 64., 64., 64., 64., 64., 64., 58., 64., 64., 62.,
          64., 64., 64., 64., 64., 64., 64., 64., 64., 64., 64., 64.,
          64., 64., 64., 64., 64., 64., 64., 64., 64., 64., 64., 64.,
          64., 64., 64., 64., 64., 64., 64., 64., 36., 0., 0., 4., 34.,
          2., 62., 55., 45., 15., 26., 8., 45., 60., 7., 0., 48., 25.,
          0., 0., 30., 8., 10., 40., 34., 25., 36., 31., 48., 54., 2.,
          0., 52., 21., 0., 0., 38., 15., 20., 47., 55., 54., 20., 38.,
          56., 44., 0., 0., 34., 22., 0., 0., 44., 0., 14., 19., 41., 8.,
          50., 27., 43., 54., 8., 0., 43., 16., 0., 0., 56., 11., 45.,
          37., 53., 43., 51., 30., 43., 56., 5., 0., 38., 27., 0., 5.,
          63., 51., 58., 61., 63., 61., 57., 63., 44., 63., 12., 11., 0.,
          20., 27., 0., 24., 40., 43., 24., 32., 49., 52., 37., 0., 23.,
          31., 0., 0., 8., 24., 0., 20., 22., 34., 16., 23., 28., 39.,
          24., 0., 8., 24., 0., 0., 24., 32., 0., 34., 46., 49., 32.,
          32., 47., 55., 34., 0., 25., 36., 0., 0., 32., 40., 0., 39.,
          50., 55., 38., 39., 50., 55., 40., 0., 28., 40., 0., 0., 16.,
          30., 0., 16., 29., 40., 16., 28., 37., 42., 24., 0., 16., 24.,
          0., 0., 24., 27., 0., 24., 40., 43., 23., 31., 45., 44., 29.,
          0., 24., 27., 0., 0., 32., 40., 0., 40., 53., 55., 40., 42.,
          58., 55., 40., 0., 36., 40., 0., 0., 16., 29., 0., 22., 29.,
          44., 22., 32., 42., 56., 32., 0., 18., 32., 0., 0., 40., 34.,
          0., 38., 55., 52., 31., 48., 58., 58., 48., 0., 40., 40., 0.,
          0., 16., 22., 0., 22., 31., 37., 17., 25., 40., 44., 31., 0.,
          16., 21., 0., 0., 28., 43., 0., 29., 52., 58., 32., 43., 56.,
          62., 50., 0., 31., 48., 0., 0., 25., 37., 0., 32., 41., 48.,
          24., 40., 52., 53., 40., 0., 32., 32., 0., 0., 20., 39., 0.,
          5., 34., 49., 39., 48., 53., 48., 22., 0., 24., 32., 0., 0.,
          22., 32., 0., 32., 41., 48., 28., 32., 44., 50., 40., 0., 24.,
          32., 0., 0., 32., 46., 0., 40., 52., 58., 40., 42., 57., 59.,
          48., 0., 40., 44., 0., 4., 41., 42., 0., 44., 57., 55., 40.,
          47., 58., 58., 48., 0., 40., 40., 0., 35., 64., 61., 35., 64.,
          64., 64., 64., 56., 64., 64., 64., 33., 64., 64., 53., 35.,
          59., 57., 40., 64., 64., 64., 64., 64., 64., 64., 64., 43.,
          64., 64., 63., 37., 63., 63., 25., 62., 64., 64., 60., 64.,
          64., 64., 64., 33., 61., 64., 39., 61., 64., 64., 64., 56.,
          64., 64., 64., 56., 64., 64., 64., 56., 64., 64., 64., 38.,
          58., 64., 64., 64., 64., 64., 64., 48., 64., 64., 64., 48.,
          64., 64., 64., 49., 64., 63., 19., 64., 64., 64., 54., 64.,
          64., 64., 64., 51., 64., 64., 45., 0., 20., 35., 25., 47., 56.,
          52., 24., 8., 38., 44., 35., 40., 50., 40., 9., 0., 29., 26.,
          26., 35., 45., 39., 4., 0., 28., 40., 28., 31., 40., 29., 0.,
          0., 43., 40., 41., 52., 56., 47., 6., 2., 47., 44., 46., 48.,
          53., 37., 2., 0., 37., 37., 30., 45., 60., 55., 29., 24., 54.,
          56., 52., 41., 48., 44., 0., 0., 52., 46., 46., 53., 63., 61.,
          35., 34., 58., 57., 62., 56., 53., 50., 9., 0., 29., 37., 29.,
          51., 56., 52., 24., 15., 48., 49., 46., 39., 45., 40., 8., 0.,
          31., 38., 24., 50., 60., 57., 37., 27., 48., 56., 57., 40.,
          45., 42., 4., 6., 46., 57., 30., 63., 64., 63., 45., 50., 61.,
          63., 64., 40., 56., 56., 10., 0., 25., 39., 22., 44., 60., 58.,
          37., 35., 50., 53., 57., 44., 45., 39., 3., 0., 35., 45., 29.,
          62., 62., 60., 38., 35., 51., 55., 58., 47., 50., 44., 12., 0.,
          40., 53., 37., 58., 63., 62., 35., 43., 60., 62., 60., 42.,
          49., 53., 0., 0., 14., 36., 48., 28., 62., 58., 23., 26., 46.,
          51., 50., 54., 49., 32., 0., 9., 51., 48., 43., 60., 62., 61.,
          48., 43., 59., 59., 64., 52., 56., 53., 14., 0., 40., 54., 39.,
          60., 61., 61., 34., 41., 58., 63., 58., 42., 49., 48., 0., 0.,
          15., 38., 45., 21., 59., 58., 38., 44., 54., 58., 33., 54.,
          50., 22., 0., 0., 34., 37., 38., 45., 55., 50., 20., 12., 52.,
          51., 50., 32., 45., 32., 4. ]
   responses: !!opencv-matrix
      rows: 741
      cols: 1
      dt: f
      data: [ 48., 48., 48., 48., 48., 48., 48., 48., 48., 48., 48., 48.,
          48., 48., 48., 48., 48., 49., 49., 49., 49., 49., 49., 49.,
          49., 49., 49., 49., 49., 49., 49., 49., 49., 50., 50., 50.,
          50., 50., 50., 50., 50., 50., 50., 50., 50., 50., 50., 50.,
          50., 50., 50., 51., 51., 51., 51., 51., 51., 51., 51., 51.,
          51., 51., 51., 51., 51., 51., 51., 52., 52., 52., 52., 52.,
          52., 52., 52., 52., 52., 52., 52., 52., 52., 52., 52., 52.,
          53., 53., 53., 53., 53., 53., 53., 53., 53., 53., 53., 53.,
          53., 53., 53., 53., 53., 54., 54., 54., 54., 54., 54., 54.,
          54., 54., 54., 54., 54., 54., 54., 54., 54., 54., 55., 55.,
          55., 55., 55., 55., 55., 55., 55., 55., 55., 55., 55., 55.,
          55., 55., 55., 56., 56., 56., 56., 56., 56., 56., 56., 56.,
          56., 56., 56., 56., 56., 56., 56., 56., 57., 57., 57., 57.,
          57., 57., 57., 57., 57., 57., 57., 57., 57., 57., 57., 57.,
          57., 65., 65., 65., 65., 65., 65., 65., 65., 65., 65., 65.,
          65., 65., 65., 65., 65., 65., 66., 66., 66., 66., 66., 66.,
          66., 66., 66., 66., 66., 66., 66., 66., 66., 66., 66., 67.,
          67., 67., 67., 67., 67., 67., 67., 67., 67., 67., 67., 67.,
          67., 67., 67., 67., 68., 68., 68., 68., 68., 68., 68., 68.,
          68., 68., 68., 68., 68., 68., 68., 68., 68., 69., 69., 69.,
          69., 69., 69., 69., 69., 69., 69., 69., 69., 69., 69., 69.,
          69., 69., 70., 70., 70., 70., 70., 70., 70., 70., 70., 70.,
          70., 70., 70., 70., 70., 70., 70., 71., 71., 71., 71., 71.,
          71., 71., 71., 71., 71., 71., 71., 71., 71., 71., 71., 71.,
          72., 72., 72., 72., 72., 72., 72., 72., 72., 72., 72., 72.,
          72., 72., 72., 72., 72., 73., 73., 73., 73., 73., 73., 73.,
          74., 74., 74., 74., 74., 74., 74., 74., 74., 74., 74., 74.,
          74., 74., 74., 74., 75., 75., 75., 75., 75., 75., 75., 75.,
          75., 75., 75., 75., 75., 75., 75., 75., 75., 76., 76., 76.,
          76., 76., 76., 76., 76., 76., 76., 76., 76., 76., 76., 76.,
          76., 76., 77., 77., 77., 77., 77., 77., 77., 77., 77., 77.,
          77., 77., 77., 77., 77., 77., 78., 78., 78., 78., 78., 78.,
          78., 78., 78., 78., 78., 78., 78., 78., 78., 78., 78., 79.,
          79., 79., 79., 79., 79., 79., 79., 79., 79., 79., 79., 79.,
          79., 79., 79., 79., 80., 80., 80., 80., 80., 80., 80., 80.,
          80., 80., 80., 80., 80., 80., 80., 80., 80., 81., 81., 81.,
          81., 81., 81., 81., 81., 81., 81., 81., 81., 81., 81., 81.,
          81., 81., 81., 82., 82., 82., 82., 82., 82., 82., 82., 82.,
          82., 82., 82., 82., 82., 82., 82., 83., 83., 83., 83., 83.,
          83., 83., 83., 83., 83., 83., 83., 83., 83., 83., 83., 83.,
          84., 84., 84., 84., 84., 84., 84., 84., 84., 84., 84., 84.,
          84., 84., 84., 84., 84., 85., 85., 85., 85., 85., 85., 85.,
          85., 85., 85., 85., 85., 85., 85., 85., 85., 85., 86., 86.,
          86., 86., 86., 86., 86., 86., 86., 86., 86., 86., 86., 86.,
          86., 86., 86., 87., 87., 87., 87., 87., 87., 87., 87., 87.,
          87., 87., 87., 87., 87., 87., 87., 88., 88., 88., 88., 88.,
          88., 88., 88., 88., 88., 88., 88., 88., 88., 88., 88., 88.,
          89., 89., 89., 89., 89., 89., 89., 89., 89., 89., 89., 89.,
          89., 89., 89., 89., 89., 90., 90., 90., 90., 90., 90., 90.,
          90., 90., 90., 90., 90., 90., 90., 90., 90., 90., 64., 64.,
          64., 64., 64., 64., 64., 64., 64., 64., 64., 64., 64., 64.,
          64., 64., 40., 40., 40., 40., 40., 40., 40., 40., 40., 40.,
          40., 40., 40., 40., 41., 41., 41., 41., 41., 41., 41., 41.,
          41., 41., 41., 41., 41., 44., 44., 44., 44., 61., 61., 61.,
          61., 171., 171., 171., 171., 171., 171., 171., 171., 171.,
          171., 171., 171., 171., 171., 171., 171., 187., 187., 187.,
          187., 187., 187., 187., 187., 187., 187., 187., 187., 187.,
          187., 187., 187., 45., 45., 45., 45., 45., 45., 45., 45., 45.,
          45., 45., 45., 45., 45., 45., 45., 63., 63., 63., 63., 63.,
          63., 43., 43., 43., 43., 43., 43., 43., 43., 43., 43., 43.,
          43., 43., 43., 43., 43., 46., 46., 46., 46., 46., 46., 35.,
          35., 35., 35., 35., 35., 35., 35., 35., 35., 35., 35., 35.,
          35., 35., 35. ]
