%YAML:1.0
---
opencv_ml_knn:
   format: 3
   is_classifier: 1
   default_k: 10
   samples: !!opencv-matrix
      rows: 222
      cols: 16
      dt: f
      data: [ 28., 54., 55., 26., 50., 40., 40., 50., 45., 32., 32., 44.,
          36., 64., 64., 37., 29., 60., 61., 39., 45., 5., 2., 42., 44.,
          0., 0., 36., 39., 60., 58., 52., 26., 61., 63., 31., 42., 15.,
          17., 40., 39., 11., 8., 34., 29., 64., 64., 38., 28., 56., 60.,
          32., 60., 32., 30., 59., 58., 22., 25., 56., 36., 64., 64.,
          45., 36., 64., 64., 39., 48., 5., 3., 43., 48., 3., 1., 39.,
          35., 64., 64., 49., 21., 0., 0., 4., 42., 48., 48., 52., 60.,
          64., 64., 64., 64., 64., 64., 64., 35., 8., 0., 23., 56., 30.,
          30., 43., 56., 49., 48., 57., 0., 0., 0., 24., 7., 56., 0., 0.,
          26., 43., 0., 0., 58., 64., 62., 64., 64., 64., 64., 64., 10.,
          36., 0., 0., 24., 24., 0., 0., 48., 52., 48., 48., 64., 64.,
          64., 64., 31., 9., 0., 35., 57., 0., 22., 63., 64., 45., 48.,
          50., 34., 50., 7., 57., 38., 0., 0., 46., 40., 0., 23., 59.,
          47., 17., 52., 28., 43., 59., 17., 24., 38., 6., 0., 33., 42.,
          0., 12., 54., 56., 20., 45., 33., 39., 50., 9., 35., 32., 19.,
          6., 52., 60., 11., 46., 64., 57., 32., 56., 53., 45., 60., 15.,
          48., 30., 16., 1., 49., 50., 6., 36., 58., 46., 15., 49., 37.,
          41., 57., 10., 35., 19., 0., 0., 54., 34., 19., 2., 35., 62.,
          61., 34., 32., 36., 39., 64., 43., 35., 4., 4., 36., 39., 16.,
          16., 28., 48., 39., 26., 29., 46., 50., 56., 56., 24., 0., 0.,
          29., 35., 12., 2., 26., 42., 41., 24., 26., 49., 44., 62., 42.,
          41., 13., 16., 45., 61., 23., 10., 58., 58., 52., 31., 55.,
          38., 47., 61., 49., 30., 10., 6., 43., 50., 17., 6., 46., 48.,
          40., 17., 34., 31., 41., 59., 49., 0., 6., 53., 15., 6., 43.,
          31., 16., 48., 62., 63., 59., 43., 40., 52., 48., 0., 11., 50.,
          13., 22., 56., 38., 16., 64., 45., 49., 46., 24., 24., 39.,
          32., 0., 9., 52., 3., 15., 43., 29., 8., 59., 56., 59., 53.,
          24., 24., 39., 29., 0., 9., 55., 22., 13., 60., 55., 24., 61.,
          61., 60., 59., 32., 32., 48., 42., 0., 6., 59., 5., 7., 54.,
          49., 8., 54., 52., 51., 39., 24., 24., 45., 29., 23., 55., 0.,
          46., 54., 60., 9., 37., 55., 47., 29., 25., 49., 22., 64., 41.,
          48., 48., 0., 32., 45., 44., 0., 32., 32., 32., 15., 42., 24.,
          18., 64., 48., 5., 26., 0., 36., 55., 44., 0., 30., 41., 58.,
          3., 29., 40., 38., 54., 38., 24., 42., 30., 35., 63., 62., 18.,
          58., 56., 48., 24., 57., 47., 27., 64., 41., 31., 53., 27.,
          49., 55., 54., 4., 40., 40., 45., 2., 40., 34., 29., 59., 48.,
          4., 48., 64., 41., 37., 62., 32., 55., 45., 27., 27., 31., 20.,
          16., 64., 54., 21., 57., 57., 41., 49., 33., 13., 40., 34.,
          31., 14., 37., 29., 13., 63., 52., 6., 49., 64., 35., 37., 51.,
          16., 37., 36., 32., 15., 27., 16., 15., 63., 49., 29., 61.,
          62., 33., 59., 49., 39., 58., 59., 40., 38., 56., 34., 21.,
          63., 48., 27., 60., 62., 36., 51., 37., 13., 40., 47., 39., 9.,
          36., 40., 31., 62., 50., 54., 12., 0., 0., 62., 0., 2., 29.,
          64., 25., 56., 33., 61., 34., 2., 0., 30., 0., 0., 3., 40., 0.,
          21., 55., 40., 40., 59., 21., 63., 38., 2., 0., 54., 3., 0.,
          0., 43., 0., 6., 37., 50., 27., 51., 26., 60., 33., 1., 0.,
          55., 0., 0., 2., 63., 12., 48., 64., 62., 58., 48., 25., 59.,
          30., 0., 0., 44., 0., 0., 4., 47., 9., 46., 62., 55., 56., 31.,
          8., 59., 13., 0., 0., 42., 43., 45., 47., 53., 62., 43., 38.,
          33., 45., 54., 36., 52., 50., 61., 52., 37., 34., 41., 55.,
          47., 46., 40., 30., 46., 38., 37., 29., 43., 39., 50., 60.,
          46., 36., 41., 54., 44., 58., 42., 35., 36., 47., 49., 24.,
          46., 32., 50., 58., 42., 43., 56., 45., 57., 52., 44., 55.,
          56., 48., 34., 50., 44., 49., 61., 54., 31., 36., 55., 41.,
          50., 46., 33., 44., 48., 42., 24., 35., 32., 46., 59., 53.,
          33., 62., 20., 7., 48., 37., 39., 29., 48., 32., 50., 48., 35.,
          64., 58., 14., 38., 56., 14., 14., 35., 24., 30., 32., 40.,
          13., 47., 42., 38., 64., 54., 8., 34., 57., 17., 25., 46., 8.,
          38., 32., 48., 5., 38., 44., 33., 62., 61., 30., 38., 61., 20.,
          44., 61., 33., 40., 53., 60., 34., 47., 54., 32., 64., 62.,
          44., 38., 63., 23., 42., 50., 7., 44., 41., 44., 4., 41., 42.,
          35., 61., 63., 46., 0., 6., 29., 52., 37., 49., 50., 3., 47.,
          47., 46., 0., 0., 14., 46., 53., 0., 6., 31., 50., 36., 41.,
          50., 2., 36., 41., 48., 0., 0., 8., 38., 50., 0., 0., 11., 40.,
          20., 37., 39., 3., 35., 54., 43., 8., 0., 6., 30., 57., 0.,
          12., 36., 58., 51., 58., 57., 20., 47., 57., 55., 17., 0., 12.,
          40., 60., 0., 0., 12., 40., 17., 41., 45., 3., 32., 60., 62.,
          27., 0., 3., 31., 59., 64., 64., 64., 64., 34., 18., 17., 26.,
          50., 40., 25., 36., 31., 39., 56., 51., 54., 48., 48., 45.,
          25., 20., 20., 26., 39., 29., 21., 22., 36., 46., 57., 55.,
          61., 59., 60., 62., 38., 24., 16., 32., 44., 32., 19., 38.,
          40., 50., 54., 50., 52., 44., 42., 44., 45., 47., 44., 47.,
          47., 47., 38., 45., 40., 41., 57., 52., 64., 64., 64., 64.,
          50., 35., 33., 43., 55., 43., 32., 48., 41., 47., 60., 53.,
          17., 54., 56., 29., 43., 3., 1., 43., 33., 0., 0., 28., 37.,
          0., 0., 38., 21., 60., 63., 25., 38., 2., 1., 42., 24., 0., 0.,
          16., 48., 6., 0., 26., 28., 54., 55., 29., 44., 0., 1., 42.,
          40., 0., 0., 32., 41., 12., 19., 45., 19., 57., 60., 22., 51.,
          25., 23., 51., 20., 0., 0., 20., 38., 2., 0., 28., 25., 62.,
          62., 23., 54., 15., 14., 55., 54., 0., 2., 53., 45., 18., 31.,
          44., 64., 64., 64., 64., 32., 0., 0., 26., 48., 3., 2., 48.,
          30., 59., 61., 37., 50., 41., 40., 42., 24., 16., 16., 28.,
          34., 0., 0., 32., 33., 56., 58., 35., 64., 62., 64., 62., 32.,
          0., 0., 32., 46., 0., 0., 41., 33., 54., 53., 43., 63., 64.,
          64., 61., 51., 16., 16., 48., 55., 8., 7., 55., 34., 64., 64.,
          39., 53., 44., 40., 45., 44., 32., 32., 46., 48., 19., 16.,
          43., 32., 64., 64., 35., 64., 64., 64., 64., 32., 24., 25.,
          30., 32., 24., 19., 24., 27., 17., 11., 24., 53., 48., 48.,
          50., 28., 31., 29., 34., 16., 19., 12., 16., 37., 14., 15.,
          40., 60., 59., 58., 61., 40., 24., 16., 32., 37., 24., 16.,
          32., 35., 18., 14., 32., 52., 46., 43., 48., 47., 52., 51.,
          54., 21., 40., 37., 20., 42., 3., 7., 53., 64., 64., 64., 64.,
          57., 39., 34., 46., 56., 32., 24., 41., 47., 27., 17., 46.,
          64., 64., 64., 62., 43., 23., 34., 12., 32., 16., 24., 0., 32.,
          11., 16., 0., 57., 52., 49., 51., 54., 52., 54., 51., 27., 45.,
          38., 1., 50., 6., 6., 0., 64., 64., 64., 64., 56., 40., 42.,
          31., 48., 32., 24., 0., 48., 25., 21., 0., 64., 64., 64., 64.,
          44., 21., 33., 13., 39., 16., 22., 0., 35., 11., 16., 0., 47.,
          40., 34., 38., 42., 37., 36., 35., 17., 20., 12., 0., 41., 14.,
          12., 0., 21., 53., 55., 31., 47., 2., 3., 43., 37., 8., 25.,
          26., 45., 7., 56., 56., 20., 56., 59., 27., 35., 1., 3., 39.,
          24., 3., 3., 17., 39., 15., 57., 49., 24., 52., 54., 30., 46.,
          0., 0., 41., 40., 2., 31., 30., 38., 16., 56., 51., 25., 62.,
          62., 28., 56., 11., 11., 52., 55., 8., 35., 46., 40., 27., 64.,
          55., 16., 59., 61., 25., 41., 19., 20., 43., 27., 0., 16., 24.,
          37., 5., 42., 44., 64., 64., 64., 64., 0., 19., 21., 8., 0.,
          16., 16., 0., 56., 59., 58., 56., 54., 48., 41., 47., 17., 16.,
          24., 19., 15., 22., 20., 10., 58., 56., 56., 58., 60., 61.,
          64., 63., 0., 25., 16., 0., 0., 30., 16., 0., 56., 60., 58.,
          55., 59., 51., 49., 51., 28., 31., 34., 27., 29., 34., 34.,
          27., 52., 48., 48., 52., 64., 64., 64., 64., 16., 34., 40.,
          16., 14., 37., 36., 8., 64., 64., 64., 64., 17., 0., 0., 4.,
          64., 64., 64., 64., 64., 64., 64., 64., 16., 7., 8., 29., 39.,
          28., 30., 21., 64., 64., 64., 64., 64., 64., 64., 64., 35.,
          32., 32., 37., 0., 0., 0., 32., 0., 0., 0., 24., 48., 48., 34.,
          52., 64., 64., 64., 59., 2., 0., 0., 47., 18., 0., 0., 32.,
          64., 64., 64., 64., 53., 48., 56., 35., 0., 0., 8., 53., 0.,
          0., 2., 45., 16., 16., 16., 43., 64., 64., 64., 56., 0., 0.,
          12., 53., 6., 0., 2., 34., 59., 51., 50., 58., 53., 48., 49.,
          36., 0., 0., 23., 52., 0., 0., 11., 56., 24., 24., 22., 54.,
          64., 64., 64., 56., 64., 64., 64., 61., 4., 51., 47., 9., 39.,
          32., 42., 37., 42., 2., 3., 48., 52., 48., 48., 49., 13., 44.,
          51., 12., 43., 12., 29., 49., 14., 0., 0., 35., 58., 61., 64.,
          64., 3., 51., 34., 0., 43., 31., 51., 23., 36., 0., 5., 51.,
          52., 48., 47., 47., 29., 46., 49., 29., 25., 34., 58., 46.,
          35., 0., 5., 47., 64., 64., 64., 64., 11., 55., 43., 8., 51.,
          47., 61., 33., 40., 1., 9., 53., 64., 64., 64., 64., 16., 16.,
          18., 41., 0., 0., 0., 29., 0., 0., 0., 24., 48., 42., 40., 45.,
          30., 28., 32., 41., 0., 0., 0., 17., 0., 0., 2., 47., 61., 61.,
          56., 56., 8., 8., 10., 37., 0., 0., 0., 32., 0., 0., 0., 32.,
          64., 64., 64., 64., 24., 27., 31., 56., 0., 0., 0., 48., 0.,
          0., 0., 48., 53., 45., 46., 48., 46., 40., 40., 49., 0., 0.,
          0., 21., 0., 0., 9., 53., 63., 53., 40., 40., 6., 29., 45.,
          32., 4., 29., 45., 36., 63., 55., 39., 34., 51., 38., 34., 33.,
          14., 39., 49., 27., 5., 28., 37., 22., 57., 52., 48., 52., 63.,
          61., 52., 50., 15., 36., 49., 37., 12., 30., 48., 44., 64.,
          60., 46., 42., 54., 37., 25., 39., 32., 53., 56., 31., 29.,
          39., 35., 18., 57., 55., 56., 58., 63., 64., 63., 64., 37.,
          53., 60., 44., 38., 52., 62., 49., 64., 64., 59., 56., 64.,
          58., 56., 56., 34., 50., 12., 0., 0., 15., 51., 30., 58., 57.,
          59., 64., 36., 16., 16., 19., 38., 52., 17., 21., 4., 26., 48.,
          6., 44., 39., 51., 50., 64., 64., 64., 64., 22., 53., 10., 0.,
          0., 15., 57., 21., 56., 56., 58., 63., 48., 37., 40., 43., 54.,
          48., 3., 8., 9., 51., 53., 9., 49., 34., 53., 44., 64., 64.,
          64., 64., 30., 63., 35., 15., 13., 31., 62., 38., 64., 64.,
          64., 64., 23., 55., 54., 33., 46., 1., 0., 42., 43., 0., 0.,
          34., 38., 46., 49., 41., 24., 60., 59., 26., 35., 2., 4., 35.,
          27., 0., 0., 25., 34., 54., 52., 37., 25., 52., 51., 31., 47.,
          1., 0., 40., 44., 0., 0., 39., 28., 54., 51., 32., 29., 64.,
          64., 31., 55., 8., 7., 54., 55., 5., 3., 54., 29., 63., 64.,
          34., 21., 57., 59., 24., 45., 19., 18., 42., 38., 6., 3., 31.,
          30., 63., 64., 32., 60., 56., 56., 56., 43., 18., 40., 8., 47.,
          11., 32., 0., 43., 62., 14., 0., 50., 44., 40., 43., 45., 40.,
          49., 39., 39., 16., 24., 0., 48., 64., 12., 0., 64., 64., 64.,
          64., 35., 14., 32., 0., 36., 13., 31., 0., 52., 60., 13., 0.,
          54., 48., 48., 49., 54., 50., 52., 51., 41., 29., 16., 3., 50.,
          61., 3., 0., 64., 64., 64., 64., 54., 34., 43., 20., 56., 30.,
          32., 0., 48., 64., 19., 0., 30., 43., 47., 21., 36., 0., 0.,
          35., 43., 5., 13., 40., 16., 46., 41., 41., 28., 56., 45., 1.,
          29., 0., 14., 18., 23., 0., 8., 50., 35., 55., 50., 12., 26.,
          50., 54., 22., 42., 0., 1., 39., 42., 0., 10., 55., 28., 51.,
          53., 50., 36., 64., 46., 1., 36., 12., 27., 25., 34., 8., 19.,
          58., 38., 64., 51., 17., 29., 63., 59., 19., 54., 5., 16., 50.,
          55., 9., 33., 52., 26., 61., 57., 54., 60., 61., 57., 58., 35.,
          18., 27., 2., 44., 34., 51., 10., 39., 48., 27., 59., 45., 40.,
          40., 41., 35., 33., 47., 25., 50., 52., 49., 38., 13., 11., 0.,
          34., 60., 58., 59., 56., 32., 19., 25., 0., 41., 33., 55., 14.,
          41., 46., 11., 53., 54., 48., 48., 52., 37., 29., 51., 29.,
          53., 51., 61., 45., 18., 28., 7., 48., 64., 64., 64., 64., 50.,
          29., 40., 11., 55., 44., 63., 29., 38., 49., 18., 58., 37.,
          46., 0., 41., 48., 48., 9., 34., 36., 22., 32., 40., 38., 4.,
          60., 53., 44., 53., 7., 47., 29., 42., 18., 17., 29., 16., 43.,
          15., 37., 9., 49., 51., 32., 43., 23., 41., 48., 37., 12., 42.,
          41., 21., 23., 35., 43., 18., 57., 51., 41., 56., 18., 59.,
          39., 56., 27., 22., 28., 31., 51., 18., 45., 19., 62., 56.,
          33., 52., 24., 42., 57., 50., 29., 56., 57., 34., 36., 51.,
          38., 34., 63., 53., 39., 0., 0., 0., 50., 24., 24., 24., 52.,
          32., 32., 32., 39., 0., 0., 0., 42., 0., 0., 0., 44., 32., 32.,
          35., 40., 32., 32., 35., 33., 0., 0., 0., 37., 0., 0., 0., 49.,
          24., 24., 26., 52., 32., 32., 32., 36., 0., 0., 0., 51., 2.,
          0., 0., 44., 32., 32., 38., 54., 47., 48., 52., 42., 1., 0.,
          3., 50., 0., 0., 0., 58., 30., 31., 28., 60., 48., 48., 48.,
          48., 0., 0., 0., 57., 63., 62., 43., 0., 0., 1., 42., 0., 0.,
          0., 41., 48., 48., 51., 49., 53., 47., 47., 29., 15., 8., 11.,
          37., 1., 0., 0., 24., 50., 40., 40., 33., 56., 56., 56., 39.,
          0., 0., 0., 42., 0., 0., 0., 42., 56., 56., 56., 41., 47., 40.,
          40., 23., 46., 39., 40., 54., 4., 0., 0., 23., 47., 36., 36.,
          31., 64., 64., 64., 43., 15., 16., 16., 57., 16., 16., 16.,
          54., 64., 64., 64., 49., 58., 39., 9., 0., 0., 21., 52., 51.,
          0., 14., 47., 53., 58., 45., 15., 0., 53., 32., 6., 0., 3.,
          21., 47., 40., 0., 17., 45., 51., 51., 41., 13., 0., 45., 14.,
          0., 0., 25., 46., 50., 23., 2., 16., 45., 39., 49., 24., 3.,
          0., 48., 18., 0., 0., 44., 59., 52., 28., 2., 15., 56., 37.,
          46., 28., 4., 0., 58., 35., 9., 0., 20., 44., 63., 48., 10.,
          36., 57., 59., 63., 45., 18., 3., 33., 40., 37., 25., 24., 33.,
          35., 36., 23., 32., 40., 37., 37., 39., 32., 21., 51., 39.,
          20., 3., 31., 30., 54., 44., 23., 35., 48., 35., 34., 31., 20.,
          3., 31., 38., 37., 24., 25., 37., 35., 33., 32., 37., 40., 27.,
          35., 34., 37., 32., 47., 32., 16., 1., 26., 29., 62., 43., 45.,
          60., 43., 22., 26., 22., 29., 16., 52., 48., 35., 26., 32.,
          50., 62., 51., 42., 53., 52., 36., 45., 50., 46., 34., 49., 4.,
          6., 49., 25., 51., 50., 20., 13., 51., 51., 13., 53., 9., 10.,
          52., 30., 0., 4., 44., 39., 46., 55., 24., 29., 55., 53., 12.,
          39., 2., 10., 52., 33., 0., 0., 37., 45., 46., 39., 20., 19.,
          42., 52., 31., 36., 0., 3., 42., 49., 9., 1., 36., 50., 61.,
          48., 16., 19., 46., 60., 47., 33., 1., 8., 47., 43., 6., 10.,
          49., 45., 55., 61., 41., 41., 60., 63., 31., 47., 8., 14., 54.,
          53., 11., 0., 0., 27., 63., 34., 27., 21., 58., 47., 47., 61.,
          24., 0., 0., 52., 15., 0., 0., 11., 52., 40., 32., 9., 46.,
          46., 40., 55., 22., 0., 0., 48., 7., 0., 0., 14., 52., 27.,
          24., 8., 50., 36., 32., 50., 16., 0., 0., 43., 4., 0., 0., 32.,
          53., 22., 20., 4., 37., 38., 40., 46., 10., 0., 0., 45., 10.,
          0., 0., 54., 63., 38., 34., 1., 43., 47., 45., 46., 14., 0.,
          0., 34., 0., 19., 61., 48., 17., 61., 57., 59., 62., 21., 44.,
          62., 18., 0., 47., 35., 0., 7., 53., 40., 10., 54., 48., 50.,
          51., 19., 32., 57., 14., 0., 32., 23., 0., 7., 53., 38., 9.,
          51., 43., 43., 52., 16., 28., 60., 13., 0., 32., 29., 0., 4.,
          47., 25., 15., 53., 39., 44., 53., 14., 17., 47., 5., 0., 46.,
          44., 7., 7., 50., 31., 33., 62., 59., 62., 58., 22., 26., 38.,
          5., 10., 53., 21., 39., 38., 34., 35., 42., 46., 24., 31., 47.,
          50., 21., 43., 35., 41., 0., 17., 25., 26., 19., 18., 32., 43.,
          15., 22., 39., 45., 16., 26., 29., 28., 18., 20., 34., 38.,
          25., 39., 38., 36., 39., 36., 43., 47., 32., 32., 31., 37.,
          38., 17., 31., 33., 19., 24., 40., 54., 16., 20., 55., 51.,
          18., 26., 23., 29., 14., 21., 47., 48., 26., 43., 43., 46.,
          36., 39., 56., 59., 32., 34., 36., 42., 38., 6., 55., 52., 2.,
          28., 56., 60., 33., 40., 4., 8., 38., 18., 0., 0., 21., 6.,
          57., 52., 6., 30., 64., 64., 28., 54., 14., 14., 54., 35., 0.,
          0., 35., 2., 48., 47., 4., 28., 64., 64., 31., 49., 30., 30.,
          57., 29., 0., 0., 19., 7., 59., 53., 2., 40., 64., 64., 38.,
          62., 64., 64., 62., 44., 2., 2., 46., 18., 0., 0., 8., 34., 2.,
          1., 33., 30., 56., 53., 39., 3., 54., 60., 8., 32., 0., 0.,
          22., 52., 4., 4., 52., 38., 60., 58., 42., 10., 62., 63., 10.,
          17., 0., 0., 8., 42., 4., 4., 41., 35., 59., 60., 43., 7., 58.,
          63., 15., 30., 0., 0., 24., 64., 50., 46., 64., 48., 64., 64.,
          54., 16., 64., 64., 16., 51., 20., 5., 55., 56., 24., 8., 64.,
          63., 34., 22., 64., 56., 24., 8., 64., 64., 30., 16., 63., 60.,
          40., 28., 64., 62., 28., 16., 64., 64., 22., 16., 64., 64.,
          15., 8., 64., 64., 28., 22., 64., 64., 16., 8., 64., 64., 16.,
          8., 64., 58., 38., 30., 63., 64., 46., 40., 64., 64., 40., 32.,
          64., 64., 36., 32., 64., 11., 52., 58., 19., 56., 29., 19.,
          55., 12., 55., 58., 14., 44., 35., 24., 57., 4., 43., 50., 6.,
          46., 30., 25., 48., 8., 42., 48., 11., 44., 33., 28., 48., 8.,
          50., 56., 12., 55., 42., 41., 56., 33., 57., 61., 34., 56.,
          25., 20., 55., 0., 36., 49., 4., 39., 48., 38., 51., 7., 41.,
          54., 8., 44., 40., 33., 49., 5., 41., 52., 14., 60., 58., 56.,
          63., 33., 58., 61., 41., 60., 38., 34., 60., 51., 21., 11.,
          52., 15., 54., 56., 24., 55., 26., 24., 53., 16., 54., 57.,
          22., 50., 12., 9., 45., 34., 60., 61., 39., 59., 38., 33., 60.,
          12., 54., 58., 22., 41., 19., 11., 42., 4., 50., 56., 11., 46.,
          20., 12., 46., 7., 45., 53., 12., 42., 32., 25., 50., 7., 49.,
          58., 14., 45., 41., 41., 50., 3., 46., 54., 6., 48., 25., 18.,
          47., 19., 54., 62., 34., 54., 41., 45., 61., 8., 49., 54., 15.,
          36., 0., 0., 4., 34., 2., 62., 55., 45., 15., 26., 8., 45.,
          60., 7., 0., 48., 25., 0., 0., 30., 8., 10., 40., 34., 25.,
          36., 31., 48., 54., 2., 0., 52., 21., 0., 0., 38., 15., 20.,
          47., 55., 54., 20., 38., 56., 44., 0., 0., 34., 22., 0., 0.,
          44., 0., 14., 19., 41., 8., 50., 27., 43., 54., 8., 0., 43.,
          16., 0., 0., 56., 11., 45., 37., 53., 43., 51., 30., 43., 56.,
          5., 0., 0., 20., 27., 0., 24., 40., 43., 24., 32., 49., 52.,
          37., 0., 23., 31., 0., 0., 8., 24., 0., 20., 22., 34., 16.,
          23., 28., 39., 24., 0., 8., 24., 0., 0., 24., 32., 0., 34.,
          46., 49., 32., 32., 47., 55., 34., 0., 25., 36., 0., 0., 32.,
          40., 0., 39., 50., 55., 38., 39., 50., 55., 40., 0., 28., 40.,
          0., 0., 16., 30., 0., 16., 29., 40., 16., 28., 37., 42., 24.,
          0., 16., 24., 0., 0., 38., 44., 2., 49., 64., 64., 40., 59.,
          64., 64., 64., 13., 48., 62., 47., 4., 45., 53., 4., 46., 64.,
          64., 54., 54., 64., 64., 53., 6., 49., 63., 15., 1., 34., 60.,
          25., 44., 64., 64., 64., 46., 64., 64., 54., 1., 34., 52., 32.,
          2., 53., 55., 10., 54., 64., 64., 54., 60., 64., 64., 60., 13.,
          60., 60., 13., 0., 20., 35., 25., 47., 56., 52., 24., 8., 38.,
          44., 35., 40., 50., 40., 9., 0., 29., 26., 26., 35., 45., 39.,
          4., 0., 28., 40., 28., 31., 40., 29., 0., 0., 43., 40., 41.,
          52., 56., 47., 6., 2., 47., 44., 46., 48., 53., 37., 2., 0.,
          37., 37., 30., 45., 60., 55., 29., 24., 54., 56., 52., 41.,
          48., 44., 0., 0., 52., 46., 46., 53., 63., 61., 35., 34., 58.,
          57., 62., 56., 53., 50., 9. ]
   responses: !!opencv-matrix
      rows: 222
      cols: 1
      dt: f
      data: [ 48., 48., 48., 48., 48., 49., 49., 49., 49., 50., 50., 50.,
          50., 50., 51., 51., 51., 51., 51., 52., 52., 52., 52., 52.,
          53., 53., 53., 53., 53., 54., 54., 54., 54., 54., 55., 55.,
          55., 55., 55., 56., 56., 56., 56., 56., 57., 57., 57., 57.,
          57., 65., 65., 65., 65., 65., 66., 66., 66., 66., 66., 67.,
          67., 67., 67., 67., 68., 68., 68., 68., 68., 69., 69., 69.,
          69., 69., 70., 70., 70., 70., 70., 71., 71., 71., 71., 71.,
          72., 72., 72., 72., 72., 73., 73., 74., 74., 74., 74., 74.,
          75., 75., 75., 75., 75., 76., 76., 76., 76., 76., 77., 77.,
          77., 77., 77., 78., 78., 78., 78., 78., 79., 79., 79., 79.,
          79., 80., 80., 80., 80., 80., 81., 81., 81., 81., 81., 82.,
          82., 82., 82., 82., 83., 83., 83., 83., 83., 84., 84., 84.,
          84., 84., 85., 85., 85., 85., 85., 86., 86., 86., 86., 86.,
          87., 87., 87., 87., 87., 88., 88., 88., 88., 88., 89., 89.,
          89., 89., 89., 90., 90., 90., 90., 90., 64., 64., 64., 64.,
          64., 40., 40., 40., 40., 41., 41., 41., 41., 61., 61., 61.,
          61., 171., 171., 171., 171., 171., 187., 187., 187., 187.,
          187., 63., 63., 63., 63., 63., 43., 43., 43., 43., 43., 46.,
          46., 46., 46., 35., 35., 35., 35., 35. ]
